<?xml version="1.0"?>
<opencv_storage>
<opencv_ml_svm>
  <format>3</format>
  <svmType>C_SVC</svmType>
  <kernel>
    <type>RBF</type>
    <gamma>5.0625000000000009e-01</gamma></kernel>
  <C>3.1250000000000000e+02</C>
  <term_criteria><epsilon>1.1920928955078125e-07</epsilon>
    <iterations>1000</iterations></term_criteria>
  <var_count>50</var_count>
  <class_count>2</class_count>
  <class_labels type_id="opencv-matrix">
    <rows>2</rows>
    <cols>1</cols>
    <dt>i</dt>
    <data>
      0 1</data></class_labels>
  <sv_total>248</sv_total>
  <support_vectors>
    <_>
      4.08163294e-02 2.91545200e-03 2.91545205e-02 1.16618080e-02
      2.62390673e-02 2.91545205e-02 1.74927115e-02 2.04081647e-02
      2.62390673e-02 2.33236160e-02 1.16618080e-02 2.91545205e-02
      2.91545205e-02 2.04081647e-02 1.16618080e-02 2.91545200e-03
      4.37317789e-02 1.45772602e-02 1.74927115e-02 3.49854231e-02
      1.16618080e-02 1.45772602e-02 1.45772602e-02 2.33236160e-02
      1.74927115e-02 2.04081647e-02 1.16618080e-02 2.91545200e-03
      2.91545205e-02 1.74927115e-02 5.83090400e-03 1.74927115e-02
      8.74635577e-03 5.83090400e-03 8.74635577e-03 2.62390673e-02
      1.16618080e-02 2.33236160e-02 3.79008763e-02 2.62390673e-02
      2.62390673e-02 5.83090400e-03 1.74927115e-02 5.53935878e-02
      1.16618080e-02 1.16618080e-02 1.74927115e-02 8.74635577e-03
      2.62390673e-02 4.08163294e-02</_>
    <_>
      2.42792107e-02 1.66919567e-02 1.21396054e-02 3.18664648e-02
      1.21396054e-02 1.97268594e-02 2.12443098e-02 9.10470448e-03
      1.82094090e-02 2.27617603e-02 9.10470448e-03 1.66919567e-02
      3.18664648e-02 2.27617603e-02 1.36570558e-02 2.73141116e-02
      1.36570558e-02 2.42792107e-02 2.88315620e-02 1.21396054e-02
      9.10470448e-03 2.88315620e-02 1.51745062e-02 1.97268594e-02
      3.64188179e-02 1.51745062e-02 1.36570558e-02 6.06980268e-03
      1.82094090e-02 2.27617603e-02 1.66919567e-02 2.12443098e-02
      3.49013656e-02 1.51745062e-02 1.66919567e-02 3.18664648e-02
      5.91805764e-02 2.12443098e-02 1.06221549e-02 1.36570558e-02
      2.27617603e-02 3.18664648e-02 3.18664648e-02 1.36570558e-02
      2.12443098e-02 3.03490134e-03 1.51745062e-02 1.06221549e-02
      4.55235224e-03 3.03490125e-02</_>
    <_>
      3.56164388e-02 1.36986300e-02 4.10958901e-02 1.36986300e-02
      3.01369876e-02 2.19178088e-02 2.19178088e-02 1.91780832e-02
      1.36986300e-02 3.01369876e-02 2.19178088e-02 2.46575344e-02
      2.46575344e-02 1.36986300e-02 1.36986300e-02 1.91780832e-02
      2.73972601e-02 1.09589044e-02 2.73972601e-02 1.36986300e-02
      1.64383575e-02 1.91780832e-02 2.73972610e-03 1.36986300e-02
      1.91780832e-02 1.91780832e-02 1.64383575e-02 1.64383575e-02
      3.28767151e-02 1.09589044e-02 1.91780832e-02 1.09589044e-02
      3.01369876e-02 1.09589044e-02 3.28767151e-02 1.64383575e-02
      1.36986300e-02 3.01369876e-02 4.10958901e-02 1.09589044e-02
      1.91780832e-02 1.09589044e-02 1.64383575e-02 3.01369876e-02
      1.09589044e-02 2.46575344e-02 1.09589044e-02 1.64383575e-02
      1.91780832e-02 1.91780832e-02</_>
    <_>
      1.06382975e-02 2.65957438e-03 1.86170209e-02 2.39361692e-02
      1.86170209e-02 1.86170209e-02 1.59574468e-02 1.86170209e-02
      2.39361692e-02 1.86170209e-02 5.31914877e-03 1.59574468e-02
      3.45744677e-02 1.59574468e-02 2.39361692e-02 1.06382975e-02
      1.06382975e-02 0. 2.12765951e-02 7.97872338e-03 2.92553175e-02
      3.45744677e-02 3.19148935e-02 2.12765951e-02 2.39361692e-02
      2.12765951e-02 4.25531901e-02 2.65957434e-02 3.72340418e-02
      3.19148935e-02 2.65957434e-02 7.97872338e-03 2.39361692e-02
      1.86170209e-02 1.32978717e-02 2.12765951e-02 1.59574468e-02
      1.32978717e-02 2.39361692e-02 5.31914877e-03 2.39361692e-02
      1.86170209e-02 7.97872338e-03 3.72340418e-02 2.39361692e-02
      2.39361692e-02 7.97872338e-03 1.86170209e-02 2.39361692e-02
      2.65957434e-02</_>
    <_>
      3.37078646e-02 7.02247210e-03 2.80898879e-03 1.54494382e-02
      1.26404492e-02 2.52808984e-02 3.08988765e-02 1.82584263e-02
      1.12359552e-02 2.52808984e-02 9.83146112e-03 2.66853943e-02
      3.08988765e-02 2.52808984e-02 3.37078646e-02 2.10674163e-02
      3.51123586e-02 2.10674163e-02 2.52808984e-02 8.42696615e-03
      5.61797759e-03 2.66853943e-02 1.26404492e-02 2.10674163e-02
      3.37078646e-02 1.26404492e-02 9.83146112e-03 3.23033705e-02
      1.40449442e-02 1.54494382e-02 1.40449442e-02 1.82584263e-02
      1.26404492e-02 1.82584263e-02 3.08988765e-02 1.82584263e-02
      3.79213504e-02 1.40449442e-02 1.26404492e-02 1.68539323e-02
      1.54494382e-02 4.91573028e-02 2.38764044e-02 2.38764044e-02
      1.82584263e-02 2.52808984e-02 5.61797759e-03 2.24719103e-02
      5.61797759e-03 1.26404492e-02</_>
    <_>
      2.66159698e-02 1.14068445e-02 1.14068445e-02 1.52091254e-02
      1.14068445e-02 1.52091254e-02 1.14068445e-02 3.04182507e-02
      2.28136890e-02 7.60456268e-03 3.80228125e-02 1.52091254e-02
      2.28136890e-02 1.90114062e-02 3.04182507e-02 1.14068445e-02
      1.14068445e-02 1.52091254e-02 7.60456268e-03 1.52091254e-02
      2.28136890e-02 1.52091254e-02 1.52091254e-02 1.90114062e-02
      2.28136890e-02 3.04182507e-02 2.66159698e-02 1.52091254e-02
      3.04182507e-02 3.04182507e-02 2.28136890e-02 1.14068445e-02
      2.66159698e-02 3.80228125e-02 3.42205316e-02 1.14068445e-02
      1.14068445e-02 2.66159698e-02 1.14068445e-02 1.52091254e-02
      1.52091254e-02 1.14068445e-02 7.60456268e-03 4.56273779e-02
      7.60456268e-03 3.42205316e-02 1.52091254e-02 2.28136890e-02
      3.42205316e-02 1.90114062e-02</_>
    <_>
      2.21729488e-03 1.10864742e-02 1.55210644e-02 2.21729483e-02
      8.86917952e-03 6.65188488e-03 1.10864742e-02 1.33037698e-02
      2.66075395e-02 4.43458976e-03 1.77383590e-02 1.77383590e-02
      4.65631932e-02 6.65188488e-03 1.77383590e-02 2.88248342e-02
      2.21729483e-02 4.43458976e-03 1.33037698e-02 1.99556537e-02
      2.43902430e-02 6.65188488e-03 1.55210644e-02 1.77383590e-02
      1.10864742e-02 2.66075395e-02 1.99556537e-02 2.43902430e-02
      3.32594216e-02 2.43902430e-02 2.43902430e-02 3.32594216e-02
      1.55210644e-02 3.10421288e-02 2.88248342e-02 2.66075395e-02
      5.09977825e-02 6.43015504e-02 2.43902430e-02 6.65188488e-03
      1.10864742e-02 2.88248342e-02 1.99556537e-02 2.43902430e-02
      2.21729488e-03 6.65188488e-03 1.10864742e-02 1.99556537e-02
      2.21729483e-02 2.66075395e-02</_>
    <_>
      2.19512191e-02 1.46341464e-02 4.39024381e-02 2.19512191e-02
      1.21951215e-02 9.75609757e-03 2.68292688e-02 2.43902430e-02
      2.43902430e-02 4.87804879e-03 7.31707318e-03 3.65853645e-02
      6.82926849e-02 1.70731712e-02 1.46341464e-02 2.43902430e-02
      3.65853645e-02 2.43902439e-03 4.87804879e-03 2.92682927e-02
      1.95121951e-02 1.21951215e-02 2.19512191e-02 1.95121951e-02
      1.21951215e-02 1.21951215e-02 0. 3.41463424e-02 1.95121951e-02
      2.19512191e-02 9.75609757e-03 7.31707318e-03 1.46341464e-02
      1.21951215e-02 1.70731712e-02 1.46341464e-02 4.87804860e-02
      3.17073166e-02 1.70731712e-02 1.70731712e-02 2.68292688e-02
      2.43902430e-02 1.21951215e-02 1.95121951e-02 1.46341464e-02
      9.75609757e-03 1.21951215e-02 2.68292688e-02 1.46341464e-02
      2.92682927e-02</_>
    <_>
      2.36406624e-02 3.30969281e-02 1.89125296e-02 2.60047279e-02
      2.36406624e-02 9.45626479e-03 2.36406624e-02 1.89125296e-02
      1.41843967e-02 1.41843967e-02 2.36406624e-02 1.65484641e-02
      4.96453904e-02 4.72813239e-03 4.72813249e-02 2.12765951e-02
      1.41843967e-02 7.09219836e-03 1.18203312e-02 1.18203312e-02
      1.18203312e-02 1.89125296e-02 9.45626479e-03 9.45626479e-03
      1.89125296e-02 2.12765951e-02 2.36406624e-02 2.60047279e-02
      1.89125296e-02 1.41843967e-02 3.07328608e-02 9.45626479e-03
      1.41843967e-02 1.65484641e-02 3.54609936e-02 2.83687934e-02
      2.60047279e-02 2.12765951e-02 2.12765951e-02 9.45626479e-03
      1.89125296e-02 3.78250591e-02 2.60047279e-02 4.72813239e-03
      2.36406624e-02 3.07328608e-02 9.45626479e-03 1.65484641e-02
      1.41843967e-02 1.89125296e-02</_>
    <_>
      1.08303251e-02 1.44404331e-02 7.22021656e-03 1.08303251e-02
      3.61010828e-03 3.61010828e-03 2.88808662e-02 1.08303251e-02
      2.16606501e-02 1.08303251e-02 7.22021656e-03 1.44404331e-02
      6.85920566e-02 2.16606501e-02 2.52707582e-02 1.80505421e-02
      2.16606501e-02 1.80505421e-02 1.08303251e-02 1.44404331e-02
      1.08303251e-02 3.61010842e-02 7.22021656e-03 0. 2.88808662e-02
      3.61010842e-02 1.44404331e-02 2.52707582e-02 3.61010842e-02
      3.61010842e-02 1.80505421e-02 1.08303251e-02 3.24909762e-02
      2.52707582e-02 2.88808662e-02 3.61010828e-03 3.61010828e-03
      3.61010842e-02 2.16606501e-02 1.44404331e-02 2.16606501e-02
      3.61010828e-03 1.44404331e-02 5.41516244e-02 1.80505421e-02
      3.97111923e-02 1.08303251e-02 2.88808662e-02 2.52707582e-02
      1.44404331e-02</_>
    <_>
      2.07156297e-02 1.12994350e-02 3.95480208e-02 2.44821087e-02
      3.76647827e-03 1.31826736e-02 2.25988701e-02 3.01318262e-02
      2.07156297e-02 9.41619556e-03 1.31826736e-02 1.69491526e-02
      4.89642173e-02 2.07156297e-02 2.44821087e-02 1.31826736e-02
      3.01318262e-02 5.64971752e-03 1.50659131e-02 9.41619556e-03
      1.88323911e-02 1.88323911e-02 7.53295654e-03 2.63653472e-02
      2.25988701e-02 7.53295654e-03 5.46139367e-02 1.31826736e-02
      1.50659131e-02 2.07156297e-02 2.25988701e-02 1.69491526e-02
      2.82485876e-02 2.82485876e-02 3.20150666e-02 1.88323911e-02
      1.69491526e-02 3.95480208e-02 1.50659131e-02 9.41619556e-03
      2.44821087e-02 1.12994350e-02 1.50659131e-02 2.07156297e-02
      3.20150666e-02 1.88323911e-02 1.31826736e-02 1.12994350e-02
      1.31826736e-02 1.31826736e-02</_>
    <_>
      3.60902250e-02 1.95488725e-02 1.05263162e-02 1.95488725e-02
      2.70676687e-02 1.35338344e-02 4.36090231e-02 1.20300753e-02
      1.05263162e-02 2.55639106e-02 1.20300753e-02 2.55639106e-02
      2.40601506e-02 2.70676687e-02 1.80451125e-02 2.85714287e-02
      2.10526325e-02 2.85714287e-02 2.40601506e-02 6.01503765e-03
      1.05263162e-02 2.70676687e-02 9.02255625e-03 1.05263162e-02
      2.40601506e-02 2.40601506e-02 2.85714287e-02 3.90977450e-02
      1.80451125e-02 1.35338344e-02 1.95488725e-02 1.65413544e-02
      3.00751883e-03 7.51879718e-03 2.55639106e-02 3.00751887e-02
      1.65413544e-02 3.90977450e-02 3.30827087e-02 2.10526325e-02
      1.65413544e-02 1.05263162e-02 2.25563906e-02 1.65413544e-02
      1.95488725e-02 1.50375944e-02 1.50375944e-02 1.20300753e-02
      9.02255625e-03 1.35338344e-02</_>
    <_>
      7.93650839e-03 1.58730168e-02 5.15873060e-02 7.93650839e-03
      1.19047631e-02 7.93650839e-03 1.98412705e-02 1.58730168e-02
      3.17460336e-02 7.93650839e-03 3.96825420e-03 1.58730168e-02
      6.74603209e-02 1.58730168e-02 4.36507948e-02 1.58730168e-02
      7.93650839e-03 2.77777798e-02 3.96825420e-03 2.38095261e-02
      2.77777798e-02 1.58730168e-02 7.93650839e-03 1.58730168e-02
      1.98412705e-02 1.58730168e-02 4.76190522e-02 3.17460336e-02
      1.58730168e-02 1.58730168e-02 2.38095261e-02 1.98412705e-02
      2.77777798e-02 1.19047631e-02 4.76190522e-02 7.93650839e-03
      2.77777798e-02 5.95238134e-02 1.58730168e-02 1.58730168e-02
      1.58730168e-02 3.96825420e-03 3.96825420e-03 2.38095261e-02 0.
      1.19047631e-02 1.19047631e-02 3.96825420e-03 2.38095261e-02
      2.38095261e-02</_>
    <_>
      2.38095243e-02 0. 4.76190494e-03 2.85714306e-02 9.52380989e-03
      1.42857153e-02 0. 9.52380989e-03 2.85714306e-02 9.52380989e-03
      9.52380989e-03 1.42857153e-02 4.76190485e-02 3.33333351e-02
      1.90476198e-02 6.66666701e-02 4.76190494e-03 1.42857153e-02
      1.42857153e-02 9.52380989e-03 2.85714306e-02 9.52380989e-03
      4.76190494e-03 1.42857153e-02 1.90476198e-02 0. 9.52380989e-03
      4.76190494e-03 2.38095243e-02 2.85714306e-02 2.85714306e-02
      1.42857153e-02 4.76190494e-03 3.33333351e-02 4.76190494e-03
      2.85714306e-02 4.76190485e-02 5.71428612e-02 4.76190494e-03
      4.76190494e-03 4.76190485e-02 5.23809530e-02 6.66666701e-02
      2.38095243e-02 1.90476198e-02 2.38095243e-02 0. 4.76190494e-03
      2.38095243e-02 4.76190494e-03</_>
    <_>
      1.28205139e-02 2.13675220e-02 3.20512839e-02 1.70940179e-02
      1.70940179e-02 1.70940179e-02 8.54700897e-03 2.13675220e-02
      2.56410278e-02 2.13675220e-02 2.13675224e-03 2.56410278e-02
      4.05982919e-02 2.35042740e-02 1.92307699e-02 2.13675220e-02
      1.70940179e-02 1.92307699e-02 2.35042740e-02 1.28205139e-02
      1.28205139e-02 1.06837610e-02 8.54700897e-03 1.49572659e-02
      1.70940179e-02 8.54700897e-03 3.41880359e-02 3.63247879e-02
      2.13675220e-02 1.28205139e-02 1.49572659e-02 4.27350448e-03
      1.06837610e-02 2.13675220e-02 2.77777798e-02 1.28205139e-02
      1.28205139e-02 5.34188077e-02 2.35042740e-02 2.77777798e-02
      2.35042740e-02 2.56410278e-02 2.35042740e-02 3.41880359e-02
      2.99145319e-02 2.13675220e-02 1.28205139e-02 1.49572659e-02
      1.06837610e-02 1.70940179e-02</_>
    <_>
      1.67286247e-02 1.67286247e-02 2.04460956e-02 5.57620823e-03
      2.78810412e-02 2.04460956e-02 3.15985121e-02 1.85873602e-02
      1.85873602e-02 9.29368008e-03 5.57620823e-03 1.48698883e-02
      3.71747203e-02 2.60223038e-02 1.48698883e-02 1.48698883e-02
      1.30111519e-02 1.30111519e-02 2.23048329e-02 1.67286247e-02
      2.04460956e-02 1.67286247e-02 2.04460956e-02 2.41635684e-02
      1.85873602e-02 2.23048329e-02 2.23048329e-02 1.48698883e-02
      2.04460956e-02 2.97397766e-02 2.04460956e-02 1.85873602e-02
      1.30111519e-02 1.30111519e-02 3.34572494e-02 1.11524165e-02
      3.34572494e-02 2.04460956e-02 2.41635684e-02 2.23048329e-02
      2.23048329e-02 5.57620823e-03 2.78810412e-02 4.46096659e-02
      2.23048329e-02 2.78810412e-02 7.43494416e-03 1.30111519e-02
      1.11524165e-02 3.34572494e-02</_>
    <_>
      7.12589081e-03 1.18764853e-02 9.50118806e-03 1.90023761e-02
      1.90023761e-02 7.12589081e-03 2.85035633e-02 1.18764853e-02
      4.03800495e-02 1.42517816e-02 9.50118806e-03 1.66270789e-02
      3.80047522e-02 2.61282679e-02 2.85035633e-02 1.18764853e-02
      1.42517816e-02 2.37529702e-03 4.75059403e-03 7.12589081e-03
      1.66270789e-02 2.13776734e-02 2.37529706e-02 3.32541578e-02
      3.32541578e-02 1.42517816e-02 1.90023761e-02 2.61282679e-02
      3.08788605e-02 2.37529706e-02 1.90023761e-02 1.66270789e-02
      3.80047522e-02 2.85035633e-02 1.42517816e-02 1.18764853e-02
      2.37529706e-02 3.08788605e-02 2.13776734e-02 1.18764853e-02
      4.75059412e-02 7.12589081e-03 1.90023761e-02 3.56294550e-02
      2.13776734e-02 4.03800495e-02 4.75059403e-03 9.50118806e-03
      1.66270789e-02 1.18764853e-02</_>
    <_>
      1.91815849e-02 2.17391308e-02 2.17391308e-02 2.42966749e-02
      1.79028139e-02 1.53452680e-02 1.53452680e-02 2.81329919e-02
      2.04603579e-02 2.17391308e-02 1.53452680e-02 3.45268548e-02
      3.06905359e-02 1.27877239e-02 2.42966749e-02 1.53452680e-02
      1.66240409e-02 1.66240409e-02 1.79028139e-02 2.04603579e-02
      1.15089510e-02 1.79028139e-02 1.91815849e-02 1.66240409e-02
      2.81329919e-02 2.42966749e-02 1.66240409e-02 4.21994887e-02
      2.30179019e-02 2.04603579e-02 1.79028139e-02 1.15089510e-02
      8.95140693e-03 1.66240409e-02 2.81329919e-02 1.66240409e-02
      2.30179019e-02 3.19693089e-02 2.94117648e-02 1.27877239e-02
      2.30179019e-02 1.27877237e-03 1.53452680e-02 2.42966749e-02
      1.66240409e-02 2.42966749e-02 1.40664959e-02 1.79028139e-02
      1.15089510e-02 2.42966749e-02</_>
    <_>
      1.32450331e-02 6.62251655e-03 6.62251655e-03 0. 6.62251655e-03 0.
      6.62251655e-03 2.64900662e-02 2.64900662e-02 0. 1.98675506e-02
      1.98675506e-02 5.29801324e-02 2.64900662e-02 1.98675506e-02
      3.31125818e-02 1.32450331e-02 0. 0. 3.31125818e-02 2.64900662e-02
      1.32450331e-02 2.64900662e-02 1.98675506e-02 1.32450331e-02
      1.32450331e-02 1.32450331e-02 1.32450331e-02 2.64900662e-02
      5.96026480e-02 1.32450331e-02 1.98675506e-02 6.62251655e-03
      4.63576168e-02 6.62251655e-03 0. 0. 6.62251636e-02 2.64900662e-02
      0. 1.32450331e-02 0. 1.98675506e-02 1.12582780e-01 1.98675506e-02
      4.63576168e-02 6.62251655e-03 0. 3.31125818e-02 2.64900662e-02</_>
    <_>
      1.40056023e-02 1.96078438e-02 4.48179282e-02 5.60224103e-03
      1.40056023e-02 1.68067235e-02 1.40056023e-02 3.08123250e-02
      8.40336177e-03 2.80112047e-02 1.40056023e-02 3.08123250e-02
      3.08123250e-02 2.52100844e-02 1.12044821e-02 5.60224103e-03
      1.68067235e-02 4.48179282e-02 2.80112047e-02 4.76190485e-02
      2.80112047e-02 1.12044821e-02 5.60224103e-03 2.80112047e-02
      1.12044821e-02 3.36134471e-02 5.04201688e-02 2.52100844e-02
      1.68067235e-02 1.68067235e-02 1.40056023e-02 1.40056023e-02
      8.40336177e-03 1.68067235e-02 1.96078438e-02 8.40336177e-03
      5.60224103e-03 1.96078438e-02 2.80112047e-02 3.08123250e-02
      1.40056023e-02 8.40336177e-03 2.80112051e-03 2.24089641e-02
      8.40336177e-03 1.40056023e-02 3.36134471e-02 1.12044821e-02
      1.40056023e-02 2.80112047e-02</_>
    <_>
      1.55440411e-02 2.07253881e-02 4.14507762e-02 1.55440411e-02
      1.03626940e-02 0. 0. 1.03626940e-02 6.21761642e-02 1.03626940e-02
      3.10880821e-02 1.55440411e-02 7.77202025e-02 1.03626940e-02
      5.18134702e-03 5.18134702e-03 2.59067342e-02 5.18134702e-03
      5.18134702e-03 3.62694301e-02 3.10880821e-02 1.03626940e-02
      2.59067342e-02 1.03626940e-02 1.03626940e-02 2.59067342e-02
      2.07253881e-02 2.07253881e-02 2.59067342e-02 4.66321222e-02 0.
      1.55440411e-02 1.55440411e-02 1.03626940e-02 3.10880821e-02
      5.18134702e-03 0. 7.25388601e-02 5.18134683e-02 2.07253881e-02
      1.55440411e-02 5.18134702e-03 5.18134702e-03 4.14507762e-02 0.
      5.18134702e-03 5.18134702e-03 1.55440411e-02 1.03626940e-02
      4.14507762e-02</_>
    <_>
      2.49433108e-02 1.36054419e-02 9.07029491e-03 2.49433108e-02
      2.72108838e-02 1.13378689e-02 1.58730168e-02 2.72108838e-02
      2.49433108e-02 1.36054419e-02 1.58730168e-02 1.58730168e-02
      4.76190485e-02 2.94784587e-02 2.04081628e-02 1.13378689e-02
      1.13378689e-02 2.04081628e-02 1.58730168e-02 2.26757373e-03
      2.72108838e-02 1.36054419e-02 1.58730168e-02 1.58730168e-02
      2.26757377e-02 9.07029491e-03 2.26757373e-03 1.13378689e-02
      2.94784587e-02 3.85487527e-02 3.85487527e-02 2.26757377e-02
      2.04081628e-02 2.26757377e-02 1.58730168e-02 1.81405898e-02
      2.04081628e-02 2.49433108e-02 1.13378689e-02 2.26757377e-02
      3.17460336e-02 9.07029491e-03 9.07029491e-03 3.62811796e-02
      1.81405898e-02 2.04081628e-02 4.53514745e-03 2.72108838e-02
      2.49433108e-02 3.17460336e-02</_>
    <_>
      3.52112669e-03 2.11267602e-02 4.92957756e-02 1.05633801e-02
      1.40845068e-02 7.04225339e-03 1.05633801e-02 1.40845068e-02
      2.81690136e-02 2.46478878e-02 1.05633801e-02 7.04225339e-03
      3.52112651e-02 4.22535203e-02 2.46478878e-02 1.40845068e-02
      7.04225339e-03 1.40845068e-02 2.11267602e-02 1.76056325e-02
      1.40845068e-02 3.52112669e-03 2.11267602e-02 1.05633801e-02
      2.11267602e-02 4.22535203e-02 4.57746461e-02 3.52112651e-02
      4.22535203e-02 2.11267602e-02 2.46478878e-02 3.52112669e-03
      1.05633801e-02 2.11267602e-02 3.52112651e-02 0. 1.40845068e-02
      2.46478878e-02 2.81690136e-02 2.46478878e-02 3.52112669e-03
      1.05633801e-02 1.05633801e-02 5.63380271e-02 3.52112669e-03
      2.81690136e-02 1.40845068e-02 1.40845068e-02 2.11267602e-02
      1.76056325e-02</_>
    <_>
      4.76190494e-03 9.52380989e-03 9.52380989e-03 1.42857153e-02
      9.52380989e-03 1.42857153e-02 1.90476198e-02 4.28571440e-02
      1.90476198e-02 1.42857153e-02 9.52380989e-03 1.90476198e-02
      5.71428612e-02 3.33333351e-02 2.85714306e-02 1.90476198e-02 0. 0.
      1.42857153e-02 1.90476198e-02 4.76190494e-03 6.66666701e-02
      1.42857153e-02 9.52380989e-03 4.76190485e-02 2.38095243e-02
      9.52380989e-03 5.71428612e-02 3.80952395e-02 3.33333351e-02
      1.90476198e-02 9.52380989e-03 9.52380989e-03 1.90476198e-02
      3.80952395e-02 9.52380989e-03 4.76190494e-03 2.38095243e-02
      1.42857153e-02 1.42857153e-02 1.42857153e-02 0. 9.52380989e-03
      1.90476198e-02 4.76190494e-03 1.42857153e-02 3.80952395e-02
      2.38095243e-02 1.42857153e-02 3.80952395e-02</_>
    <_>
      2.55102031e-02 5.10204071e-03 6.63265288e-02 1.53061226e-02
      3.06122452e-02 5.10204071e-03 5.10204071e-03 2.55102031e-02
      4.59183678e-02 4.08163257e-02 1.53061226e-02 2.04081628e-02
      2.55102031e-02 2.04081628e-02 5.10204071e-03 5.10204071e-03
      2.04081628e-02 2.55102031e-02 1.02040814e-02 1.02040814e-02
      1.53061226e-02 5.10204071e-03 4.59183678e-02 2.04081628e-02
      1.53061226e-02 2.04081628e-02 1.02040814e-02 5.10204071e-03
      3.06122452e-02 2.04081628e-02 1.53061226e-02 1.02040814e-02
      1.53061226e-02 5.10204071e-03 0. 2.55102031e-02 5.10204071e-03
      7.14285672e-02 1.02040814e-02 2.04081628e-02 2.04081628e-02
      5.10204071e-03 1.53061226e-02 4.08163257e-02 1.02040814e-02
      1.02040814e-02 1.02040814e-02 2.55102031e-02 4.08163257e-02
      3.06122452e-02</_>
    <_>
      2.34505869e-02 1.17252935e-02 1.50753763e-02 1.34003349e-02
      3.01507525e-02 1.17252935e-02 1.17252935e-02 2.84757111e-02
      2.17755437e-02 8.71021748e-02 1.50753763e-02 1.34003349e-02
      2.68006697e-02 1.17252935e-02 1.17252935e-02 6.70016743e-03
      8.37520882e-03 3.35008353e-02 2.51256283e-02 2.34505869e-02
      1.84254609e-02 2.84757111e-02 1.17252935e-02 1.34003349e-02
      2.34505869e-02 2.17755437e-02 1.00502511e-02 1.67504176e-02
      1.84254609e-02 2.51256283e-02 2.34505869e-02 1.00502511e-02
      1.50753763e-02 1.34003349e-02 1.17252935e-02 1.00502511e-02
      5.19262962e-02 3.85259613e-02 3.18257958e-02 1.34003349e-02
      1.17252935e-02 1.34003349e-02 1.34003349e-02 4.18760478e-02
      1.17252935e-02 1.00502511e-02 2.01005023e-02 6.70016743e-03
      6.70016743e-03 2.68006697e-02</_>
    <_>
      1.11888116e-02 1.81818195e-02 2.37762239e-02 2.09790226e-02
      1.11888116e-02 2.79720291e-03 1.25874132e-02 3.35664339e-02
      2.65734270e-02 9.79021005e-03 1.53846163e-02 1.39860148e-02
      3.63636389e-02 2.51748264e-02 1.81818195e-02 2.23776232e-02
      2.65734270e-02 1.67832170e-02 1.25874132e-02 1.39860148e-02
      1.67832170e-02 1.95804201e-02 2.09790226e-02 2.93706302e-02
      1.11888116e-02 8.39160848e-03 2.51748264e-02 9.79021005e-03
      3.21678333e-02 1.53846163e-02 3.07692327e-02 2.09790226e-02
      1.67832170e-02 2.79720295e-02 1.81818195e-02 2.09790226e-02
      2.23776232e-02 3.91608402e-02 1.39860148e-02 2.65734270e-02
      2.79720295e-02 2.37762239e-02 1.53846163e-02 2.09790226e-02
      1.95804201e-02 2.51748264e-02 1.11888116e-02 1.81818195e-02
      1.11888116e-02 2.79720295e-02</_>
    <_>
      1.52671756e-02 1.27226468e-02 5.08905873e-02 1.52671756e-02
      2.03562342e-02 2.03562342e-02 1.27226468e-02 1.78117044e-02
      4.58015278e-02 2.29007639e-02 1.78117044e-02 1.27226468e-02
      2.54452936e-02 1.01781171e-02 1.52671756e-02 2.79898215e-02
      1.27226468e-02 1.52671756e-02 7.63358781e-03 5.34351133e-02
      1.01781171e-02 2.03562342e-02 1.78117044e-02 2.03562342e-02
      7.63358781e-03 3.05343512e-02 4.83460575e-02 1.78117044e-02
      2.54452936e-02 2.29007639e-02 2.54452936e-02 2.03562342e-02
      1.78117044e-02 5.08905854e-03 1.52671756e-02 7.63358781e-03
      2.54452936e-02 1.78117044e-02 2.79898215e-02 2.79898215e-02
      1.52671756e-02 7.63358781e-03 1.78117044e-02 2.79898215e-02
      2.54452927e-03 1.52671756e-02 2.79898215e-02 1.01781171e-02
      2.29007639e-02 7.63358781e-03</_>
    <_>
      1.69491526e-02 1.90677959e-02 4.44915257e-02 1.90677959e-02
      1.05932206e-02 1.05932206e-02 1.48305083e-02 1.69491526e-02
      2.33050846e-02 1.05932206e-02 8.47457629e-03 4.87288125e-02
      6.35593235e-02 1.90677959e-02 1.69491526e-02 1.05932206e-02
      1.69491526e-02 1.27118640e-02 8.47457629e-03 1.48305083e-02
      8.47457629e-03 1.90677959e-02 2.11864407e-03 2.54237279e-02
      2.11864412e-02 2.54237279e-02 3.38983051e-02 4.02542390e-02
      3.38983051e-02 1.05932206e-02 8.47457629e-03 8.47457629e-03
      8.47457629e-03 2.75423732e-02 2.54237279e-02 2.54237279e-02
      8.47457629e-03 4.44915257e-02 2.11864412e-02 2.33050846e-02
      1.69491526e-02 8.47457629e-03 1.69491526e-02 2.54237279e-02
      3.60169485e-02 8.47457629e-03 1.05932206e-02 1.69491526e-02
      4.23728814e-03 2.75423732e-02</_>
    <_>
      3.66300368e-03 7.32600736e-03 2.56410260e-02 7.32600736e-03
      1.46520147e-02 3.66300368e-03 7.32600736e-03 3.29670347e-02
      2.56410260e-02 0. 7.32600736e-03 1.46520147e-02 5.12820520e-02
      3.29670347e-02 2.93040294e-02 1.09890113e-02 7.32600736e-03
      3.66300368e-03 2.19780225e-02 2.93040294e-02 1.83150191e-02
      1.83150191e-02 2.19780225e-02 1.46520147e-02 7.32600736e-03
      3.66300382e-02 1.83150191e-02 1.83150191e-02 2.93040294e-02
      2.19780225e-02 3.29670347e-02 1.46520147e-02 2.19780225e-02
      3.66300382e-02 4.39560451e-02 3.66300368e-03 3.66300368e-03
      4.76190485e-02 5.12820520e-02 3.66300368e-03 1.46520147e-02
      4.02930416e-02 3.66300368e-03 5.49450554e-02 3.66300368e-03
      1.46520147e-02 3.66300368e-03 1.46520147e-02 2.93040294e-02
      1.83150191e-02</_>
    <_>
      2.54777074e-02 1.69851389e-02 2.76008509e-02 1.91082805e-02
      2.76008509e-02 1.06157120e-02 1.48619963e-02 1.27388537e-02
      1.69851389e-02 2.12314241e-02 1.91082805e-02 4.03397046e-02
      3.82165611e-02 2.33545657e-02 1.48619963e-02 8.49256944e-03
      2.76008509e-02 1.27388537e-02 1.69851389e-02 2.54777074e-02
      1.91082805e-02 4.24628472e-03 6.36942685e-03 2.97239926e-02
      1.27388537e-02 4.24628481e-02 2.97239926e-02 2.33545657e-02
      2.12314241e-02 1.69851389e-02 1.91082805e-02 1.48619963e-02
      1.06157120e-02 1.27388537e-02 2.33545657e-02 1.27388537e-02
      8.49256944e-03 3.82165611e-02 4.67091314e-02 2.54777074e-02
      1.48619963e-02 1.91082805e-02 6.36942685e-03 2.97239926e-02
      2.12314236e-03 1.06157120e-02 1.69851389e-02 3.60934213e-02
      1.27388537e-02 1.27388537e-02</_>
    <_>
      2.20994484e-02 1.38121555e-02 2.76243105e-03 4.14364673e-02
      1.38121555e-02 1.10497242e-02 1.38121555e-02 1.65745858e-02
      2.48618796e-02 3.59116048e-02 2.20994484e-02 1.93370171e-02
      5.80110513e-02 2.20994484e-02 3.59116048e-02 2.20994484e-02
      1.10497242e-02 1.38121555e-02 1.93370171e-02 1.38121555e-02
      1.10497242e-02 1.93370171e-02 1.65745858e-02 2.48618796e-02
      2.20994484e-02 2.76243109e-02 2.76243109e-02 1.93370171e-02
      5.52486209e-03 1.10497242e-02 3.59116048e-02 1.38121555e-02
      1.10497242e-02 1.93370171e-02 2.20994484e-02 2.20994484e-02
      2.48618796e-02 2.76243109e-02 2.76243109e-02 2.20994484e-02
      1.10497242e-02 8.28729291e-03 1.65745858e-02 1.65745858e-02
      5.52486209e-03 3.31491716e-02 1.65745858e-02 1.93370171e-02
      5.52486209e-03 2.20994484e-02</_>
    <_>
      1.42671857e-02 1.94552522e-02 2.07522698e-02 1.55642023e-02
      2.46433206e-02 1.68612190e-02 2.07522698e-02 2.33463030e-02
      1.68612190e-02 1.94552522e-02 1.03761349e-02 4.15045395e-02
      4.40985747e-02 1.42671857e-02 1.42671857e-02 2.07522698e-02
      2.85343714e-02 9.07911826e-03 1.29701681e-02 1.55642023e-02
      1.42671857e-02 1.81582365e-02 2.33463030e-02 2.33463030e-02
      1.55642023e-02 1.94552522e-02 3.11284047e-02 3.11284047e-02
      2.07522698e-02 1.68612190e-02 2.59403363e-02 1.55642023e-02
      1.55642023e-02 2.72373538e-02 1.68612190e-02 2.72373538e-02
      1.16731515e-02 2.07522698e-02 2.33463030e-02 1.81582365e-02
      2.33463030e-02 1.55642023e-02 1.68612190e-02 1.42671857e-02
      2.07522698e-02 2.07522698e-02 2.72373538e-02 1.29701681e-02
      7.78210117e-03 2.07522698e-02</_>
    <_>
      2.36406624e-02 1.65484641e-02 2.36406624e-02 1.41843967e-02
      2.36406624e-02 2.60047279e-02 7.09219836e-03 2.60047279e-02
      2.12765951e-02 2.36406624e-02 3.54609936e-02 2.83687934e-02
      5.43735214e-02 1.18203312e-02 2.36406620e-03 2.36406624e-02
      1.89125296e-02 2.36406624e-02 2.36406624e-02 1.65484641e-02
      2.36406620e-03 2.12765951e-02 1.89125296e-02 1.41843967e-02
      1.65484641e-02 2.12765951e-02 2.36406624e-02 2.12765951e-02
      1.18203312e-02 1.41843967e-02 2.36406624e-02 1.89125296e-02
      3.54609936e-02 9.45626479e-03 7.09219836e-03 1.65484641e-02
      1.18203312e-02 5.91016561e-02 2.36406624e-02 2.83687934e-02
      9.45626479e-03 1.89125296e-02 1.41843967e-02 4.72813239e-03
      1.41843967e-02 4.72813239e-03 1.18203312e-02 3.07328608e-02
      1.65484641e-02 3.07328608e-02</_>
    <_>
      2.00400800e-02 1.20240487e-02 3.60721461e-02 1.40280565e-02
      2.00400800e-02 4.00801608e-03 1.60320643e-02 3.40681374e-02
      2.20440887e-02 1.00200400e-02 1.20240487e-02 2.20440887e-02
      6.41282573e-02 1.20240487e-02 2.00400800e-02 1.80360731e-02
      2.60521043e-02 2.20440887e-02 2.40480974e-02 6.01202436e-03
      1.40280565e-02 2.00400800e-02 1.80360731e-02 3.20641287e-02
      2.20440887e-02 2.60521043e-02 3.60721461e-02 2.40480974e-02
      1.40280565e-02 1.00200400e-02 1.40280565e-02 2.00400800e-02
      1.40280565e-02 8.01603217e-03 2.20440887e-02 1.80360731e-02
      2.20440887e-02 3.40681374e-02 4.20841686e-02 2.40480974e-02
      1.20240487e-02 1.20240487e-02 8.01603217e-03 2.20440887e-02
      2.80561130e-02 6.01202436e-03 1.20240487e-02 1.40280565e-02
      1.40280565e-02 2.20440887e-02</_>
    <_>
      2.92792805e-02 1.80180185e-02 3.82882878e-02 1.12612620e-02
      9.00900923e-03 4.50450461e-03 2.02702712e-02 1.80180185e-02
      2.25225240e-02 1.35135138e-02 1.35135138e-02 3.82882878e-02
      6.30630627e-02 6.75675692e-03 9.00900923e-03 2.02702712e-02
      2.02702712e-02 1.80180185e-02 2.02702712e-02 1.80180185e-02
      1.57657657e-02 1.35135138e-02 9.00900923e-03 1.80180185e-02
      1.80180185e-02 2.70270277e-02 2.02702712e-02 2.47747749e-02
      1.35135138e-02 1.35135138e-02 2.02702712e-02 1.12612620e-02
      2.02702712e-02 9.00900923e-03 1.80180185e-02 1.57657657e-02
      1.57657657e-02 4.95495498e-02 3.60360369e-02 2.70270277e-02
      2.47747749e-02 1.80180185e-02 1.12612620e-02 2.92792805e-02
      2.02702712e-02 2.02702712e-02 2.25225240e-02 2.02702712e-02
      1.57657657e-02 9.00900923e-03</_>
    <_>
      3.06748450e-02 2.45398767e-02 2.45398767e-02 1.84049085e-02 0.
      6.13496918e-03 2.45398767e-02 1.84049085e-02 6.13496900e-02 0.
      1.22699384e-02 6.13496918e-03 6.13496900e-02 4.29447852e-02
      1.84049085e-02 6.13496918e-03 1.84049085e-02 3.06748450e-02
      2.45398767e-02 3.06748450e-02 1.84049085e-02 2.45398767e-02
      1.84049085e-02 1.22699384e-02 1.22699384e-02 1.84049085e-02
      2.45398767e-02 0. 1.84049085e-02 3.06748450e-02 1.84049085e-02
      6.13496918e-03 1.22699384e-02 2.45398767e-02 6.13496918e-03
      6.13496918e-03 1.22699384e-02 2.45398767e-02 1.84049085e-02
      1.22699384e-02 2.45398767e-02 2.45398767e-02 2.45398767e-02
      5.52147217e-02 3.06748450e-02 6.13496918e-03 0. 6.13496918e-03
      6.13496918e-03 4.29447852e-02</_>
    <_>
      1.85185187e-02 1.85185187e-02 4.11522612e-02 1.44032920e-02
      1.85185187e-02 6.17283955e-03 1.23456791e-02 8.23045243e-03
      2.67489702e-02 1.23456791e-02 1.64609049e-02 3.49794216e-02
      4.73251007e-02 3.49794216e-02 2.05761306e-02 2.05761306e-02
      1.23456791e-02 2.05761311e-03 8.23045243e-03 2.05761306e-02
      1.44032920e-02 4.11522621e-03 4.11522621e-03 3.29218097e-02
      1.02880653e-02 2.46913582e-02 3.29218097e-02 1.85185187e-02
      4.32098769e-02 3.70370373e-02 3.08641959e-02 1.23456791e-02
      2.05761306e-02 2.26337444e-02 1.02880653e-02 2.26337444e-02
      1.23456791e-02 5.76131679e-02 8.23045243e-03 1.64609049e-02
      2.26337444e-02 3.08641959e-02 1.02880653e-02 3.49794216e-02
      1.23456791e-02 6.17283955e-03 4.11522621e-03 2.05761311e-03
      1.85185187e-02 2.67489702e-02</_>
    <_>
      3.60721461e-02 1.20240487e-02 4.00801599e-02 2.40480974e-02
      1.60320643e-02 1.60320643e-02 1.80360731e-02 2.60521043e-02
      2.40480974e-02 2.00400800e-02 1.00200400e-02 1.60320643e-02
      4.60921861e-02 1.80360731e-02 1.60320643e-02 8.01603217e-03
      2.00400800e-02 2.80561130e-02 3.20641287e-02 2.00400800e-02 0.
      1.40280565e-02 6.01202436e-03 2.40480974e-02 1.80360731e-02
      1.00200400e-02 3.20641287e-02 3.20641287e-02 8.01603217e-03
      2.40480974e-02 1.40280565e-02 1.00200400e-02 2.40480974e-02
      2.60521043e-02 2.20440887e-02 3.40681374e-02 2.60521043e-02
      3.80761512e-02 1.40280565e-02 1.80360731e-02 1.80360731e-02
      8.01603217e-03 1.60320643e-02 8.01603217e-03 2.80561130e-02
      1.40280565e-02 1.60320643e-02 1.40280565e-02 8.01603217e-03
      2.80561130e-02</_>
    <_>
      2.63157897e-02 1.66204982e-02 1.24653736e-02 1.24653736e-02
      3.73961218e-02 8.31024908e-03 1.38504151e-02 1.80055387e-02
      2.21606642e-02 7.89473653e-02 2.77008303e-03 3.32409963e-02
      3.87811624e-02 1.38504151e-02 1.24653736e-02 1.24653736e-02
      1.93905812e-02 1.80055387e-02 1.66204982e-02 1.10803321e-02
      1.93905812e-02 2.07756236e-02 1.66204982e-02 1.52354566e-02
      1.66204982e-02 2.63157897e-02 1.52354566e-02 1.66204982e-02
      1.52354566e-02 9.69529059e-03 1.38504151e-02 2.21606642e-02
      8.31024908e-03 1.24653736e-02 2.07756236e-02 8.31024908e-03
      7.34072030e-02 2.77008303e-02 2.77008303e-02 1.38504151e-02
      1.38504151e-02 1.38504151e-02 1.52354566e-02 2.77008303e-02
      9.69529059e-03 5.54016605e-03 1.80055387e-02 1.52354566e-02
      1.66204982e-02 3.87811624e-02</_>
    <_>
      2.50965245e-02 1.93050187e-02 2.31660232e-02 7.72200758e-03
      7.72200758e-03 1.54440152e-02 1.15830116e-02 2.12355200e-02
      1.73745174e-02 1.15830116e-02 1.54440152e-02 4.63320464e-02
      4.63320464e-02 1.35135129e-02 2.50965245e-02 2.70270258e-02
      9.65250935e-03 1.54440152e-02 7.72200758e-03 1.73745174e-02
      2.50965245e-02 2.89575290e-02 3.86100379e-03 1.93050187e-02
      2.50965245e-02 1.35135129e-02 2.89575290e-02 3.28185335e-02
      1.35135129e-02 2.89575290e-02 1.35135129e-02 2.50965245e-02
      2.12355200e-02 1.54440152e-02 3.28185335e-02 9.65250935e-03
      1.73745174e-02 2.31660232e-02 1.73745174e-02 3.08880303e-02
      1.73745174e-02 1.15830116e-02 1.15830116e-02 4.63320464e-02
      7.72200758e-03 1.73745174e-02 1.35135129e-02 3.66795361e-02
      1.35135129e-02 1.35135129e-02</_>
    <_>
      4.34782617e-02 2.71739140e-02 2.71739135e-03 2.44565215e-02
      1.35869570e-02 5.43478271e-03 1.63043477e-02 1.63043477e-02
      2.98913047e-02 3.26086953e-02 2.44565215e-02 2.17391308e-02
      2.71739140e-02 1.35869570e-02 2.44565215e-02 1.08695654e-02
      2.98913047e-02 8.15217383e-03 2.44565215e-02 1.90217402e-02
      1.08695654e-02 3.26086953e-02 8.15217383e-03 1.35869570e-02
      2.71739140e-02 2.98913047e-02 5.43478271e-03 1.90217402e-02
      5.43478271e-03 2.71739140e-02 1.90217402e-02 1.35869570e-02
      3.80434804e-02 8.15217383e-03 3.26086953e-02 1.35869570e-02
      1.35869570e-02 3.26086953e-02 4.61956523e-02 3.53260860e-02
      1.35869570e-02 1.63043477e-02 1.08695654e-02 1.90217402e-02
      8.15217383e-03 1.08695654e-02 1.90217402e-02 4.07608710e-02
      1.08695654e-02 2.71739135e-03</_>
    <_>
      8.45070370e-03 1.12676052e-02 1.12676052e-02 8.45070370e-03
      2.25352105e-02 1.69014074e-02 8.45070370e-03 4.22535203e-02
      2.25352105e-02 3.94366197e-02 3.09859142e-02 3.09859142e-02
      5.63380271e-02 2.25352105e-02 1.69014074e-02 1.97183099e-02
      2.53521111e-02 1.40845068e-02 1.69014074e-02 1.69014074e-02
      2.81690136e-02 1.97183099e-02 2.25352105e-02 2.81690136e-02
      8.45070370e-03 2.53521111e-02 3.66197154e-02 2.25352105e-02
      8.45070370e-03 0. 2.25352105e-02 1.12676052e-02 8.45070370e-03
      2.81690131e-03 8.45070370e-03 2.81690131e-03 2.81690136e-02
      1.97183099e-02 1.69014074e-02 2.25352105e-02 2.53521111e-02
      4.50704210e-02 1.12676052e-02 1.40845068e-02 3.09859142e-02
      1.97183099e-02 1.69014074e-02 2.25352105e-02 1.40845068e-02
      1.40845068e-02</_>
    <_>
      1.70357749e-02 8.51788744e-03 1.02214646e-02 2.21465062e-02
      2.55536623e-02 1.87393520e-02 2.38500852e-02 3.06643937e-02
      2.21465062e-02 2.04429291e-02 1.87393520e-02 1.70357749e-02
      8.34752992e-02 6.81430986e-03 2.38500852e-02 1.87393520e-02
      1.87393520e-02 8.51788744e-03 8.51788744e-03 3.40715493e-03
      2.55536623e-02 1.36286197e-02 5.79216331e-02 2.04429291e-02
      1.70357749e-02 5.11073228e-03 1.70357749e-02 8.51788744e-03
      1.36286197e-02 2.21465062e-02 2.04429291e-02 1.36286197e-02
      2.04429291e-02 1.87393520e-02 1.53321968e-02 2.38500852e-02
      4.77001704e-02 3.40715498e-02 1.87393520e-02 1.36286197e-02
      1.02214646e-02 2.72572394e-02 1.87393520e-02 6.81430986e-03
      1.36286197e-02 3.23679708e-02 1.02214646e-02 1.19250426e-02
      2.55536623e-02 8.51788744e-03</_>
    <_>
      1.82648413e-02 9.13242064e-03 7.61034992e-03 2.28310507e-02
      1.21765602e-02 1.82648413e-02 1.06544904e-02 3.65296826e-02
      1.82648413e-02 1.52206998e-02 2.13089809e-02 1.82648413e-02
      7.61035010e-02 2.28310507e-02 1.36986300e-02 1.97869111e-02
      1.52206998e-02 1.21765602e-02 1.21765602e-02 9.13242064e-03
      2.13089809e-02 1.97869111e-02 2.13089809e-02 2.89193299e-02
      2.13089809e-02 1.82648413e-02 2.43531205e-02 1.97869111e-02
      1.67427696e-02 1.52206998e-02 1.52206998e-02 1.21765602e-02
      2.13089809e-02 1.06544904e-02 1.52206998e-02 2.73972601e-02
      4.10958901e-02 3.34855393e-02 1.06544904e-02 7.61034992e-03
      1.97869111e-02 2.89193299e-02 1.06544904e-02 1.82648413e-02
      2.89193299e-02 3.50076109e-02 9.13242064e-03 2.28310507e-02
      2.13089809e-02 1.36986300e-02</_>
    <_>
      7.13012461e-03 1.24777183e-02 3.38680930e-02 1.96078420e-02
      7.13012461e-03 8.91265552e-03 1.78253110e-02 3.20855603e-02
      2.49554366e-02 2.31729057e-02 8.91265552e-03 1.24777183e-02
      5.16934022e-02 1.06951874e-02 2.67379675e-02 2.13903747e-02
      1.60427801e-02 1.96078420e-02 1.24777183e-02 1.06951874e-02
      1.96078420e-02 1.60427801e-02 1.24777183e-02 3.03030293e-02
      1.78253110e-02 1.24777183e-02 3.56506221e-02 2.13903747e-02
      2.31729057e-02 2.13903747e-02 1.60427801e-02 2.49554366e-02
      7.13012461e-03 2.85204984e-02 2.13903747e-02 2.49554366e-02
      4.45632786e-02 1.60427801e-02 1.96078420e-02 1.78253110e-02
      2.31729057e-02 3.03030293e-02 1.42602492e-02 3.56506230e-03
      1.96078420e-02 3.20855603e-02 2.85204984e-02 8.91265552e-03
      1.78253110e-02 1.24777183e-02</_>
    <_>
      3.11111119e-02 1.77777782e-02 4.44444455e-02 4.44444455e-03
      8.88888910e-03 0. 0. 4.44444455e-03 2.22222228e-02 8.88888910e-03
      2.66666673e-02 4.88888919e-02 4.44444455e-02 8.88888910e-03
      3.55555564e-02 4.44444455e-03 2.66666673e-02 8.88888910e-03 0.
      4.88888919e-02 2.22222228e-02 8.88888910e-03 0. 4.44444455e-03
      1.33333337e-02 3.55555564e-02 2.22222228e-02 1.33333337e-02
      5.77777773e-02 3.11111119e-02 4.44444455e-03 4.44444455e-03
      4.44444455e-02 2.22222228e-02 2.22222228e-02 8.88888910e-03
      1.33333337e-02 8.44444484e-02 6.22222237e-02 1.33333337e-02
      2.66666673e-02 8.88888910e-03 8.88888910e-03 2.66666673e-02 0.
      4.44444455e-03 4.44444455e-03 1.77777782e-02 1.77777782e-02 0.</_>
    <_>
      9.56937764e-03 9.56937764e-03 0. 3.34928222e-02 9.56937764e-03
      1.43540669e-02 1.43540669e-02 1.91387553e-02 9.56937764e-03
      4.78468882e-03 9.56937764e-03 9.56937764e-03 1.05263151e-01
      2.39234436e-02 1.91387553e-02 5.74162677e-02 9.56937764e-03
      9.56937764e-03 1.91387553e-02 1.91387553e-02 2.39234436e-02
      1.43540669e-02 4.78468882e-03 1.43540669e-02 4.78468882e-03
      1.91387553e-02 4.78468882e-03 9.56937764e-03 2.39234436e-02
      2.39234436e-02 2.39234436e-02 4.78468882e-03 2.39234436e-02
      3.82775106e-02 9.56937764e-03 2.87081338e-02 3.82775106e-02
      1.91387553e-02 2.39234436e-02 2.39234436e-02 4.78468882e-03
      5.26315756e-02 2.87081338e-02 9.56937764e-03 3.82775106e-02
      2.87081338e-02 1.91387553e-02 9.56937764e-03 1.91387553e-02
      4.78468882e-03</_>
    <_>
      1.45454546e-02 1.09090907e-02 7.27272732e-03 2.18181815e-02
      2.54545454e-02 1.81818176e-02 2.54545454e-02 3.27272713e-02
      2.90909093e-02 1.45454546e-02 2.18181815e-02 3.27272713e-02
      4.36363630e-02 2.54545454e-02 2.18181815e-02 3.63636366e-03
      2.54545454e-02 7.27272732e-03 7.27272732e-03 1.81818176e-02
      3.27272713e-02 1.81818176e-02 3.63636366e-03 2.18181815e-02
      1.09090907e-02 2.54545454e-02 7.27272732e-03 1.81818176e-02
      3.99999991e-02 2.18181815e-02 3.99999991e-02 1.45454546e-02
      2.90909093e-02 7.27272732e-03 1.81818176e-02 1.81818176e-02
      3.63636366e-03 3.63636352e-02 2.18181815e-02 2.18181815e-02
      1.81818176e-02 1.09090907e-02 7.27272732e-03 2.90909093e-02
      1.45454546e-02 1.81818176e-02 1.81818176e-02 1.81818176e-02
      3.99999991e-02 7.27272732e-03</_>
    <_>
      2.49554366e-02 5.34759369e-03 2.31729057e-02 2.49554366e-02
      1.06951874e-02 1.60427801e-02 1.96078420e-02 2.85204984e-02
      1.96078420e-02 1.42602492e-02 1.42602492e-02 1.24777183e-02
      3.92156839e-02 1.96078420e-02 1.24777183e-02 3.20855603e-02
      1.78253110e-02 1.06951874e-02 1.42602492e-02 0. 1.78253110e-02
      2.31729057e-02 8.91265552e-03 1.60427801e-02 1.96078420e-02
      2.13903747e-02 2.13903747e-02 2.13903747e-02 2.85204984e-02
      2.49554366e-02 1.24777183e-02 2.13903747e-02 2.13903747e-02
      1.78253110e-02 8.91265552e-03 3.03030293e-02 3.92156839e-02
      4.09982167e-02 1.96078420e-02 1.78253110e-02 2.67379675e-02
      4.27807495e-02 3.03030293e-02 2.31729057e-02 2.31729057e-02
      2.31729057e-02 3.56506230e-03 5.34759369e-03 1.24777183e-02
      1.60427801e-02</_>
    <_>
      8.73362459e-03 1.52838435e-02 4.14847173e-02 1.52838435e-02
      3.05676870e-02 1.52838435e-02 1.52838435e-02 2.62008738e-02
      3.05676870e-02 3.27510908e-02 2.83842795e-02 3.49344984e-02
      3.05676870e-02 1.74672492e-02 8.73362459e-03 2.62008738e-02
      1.96506549e-02 2.62008738e-02 6.55021844e-03 8.73362459e-03
      2.83842795e-02 4.36681230e-03 2.18340605e-02 2.18340605e-02
      8.73362459e-03 1.74672492e-02 4.80349362e-02 1.52838435e-02
      1.31004369e-02 6.55021844e-03 1.96506549e-02 1.96506549e-02
      1.74672492e-02 8.73362459e-03 6.55021844e-03 8.73362459e-03
      2.18340605e-02 5.02183400e-02 2.18340605e-02 1.52838435e-02
      1.09170303e-02 1.96506549e-02 3.05676870e-02 2.18340605e-02
      2.18340615e-03 1.31004369e-02 2.83842795e-02 1.96506549e-02
      1.96506549e-02 1.96506549e-02</_>
    <_>
      3.86571735e-02 1.62767041e-02 2.74669379e-02 2.33977623e-02
      3.76398787e-02 1.32248225e-02 2.44150572e-02 8.13835207e-03
      5.08646993e-03 1.37334689e-01 1.01729399e-02 1.93285868e-02
      5.08646993e-03 6.10376429e-03 1.42421164e-02 1.83112919e-02
      3.15361135e-02 3.66225839e-02 5.08647002e-02 7.12105818e-03
      2.03458802e-03 2.23804675e-02 7.12105818e-03 8.13835207e-03
      2.44150572e-02 1.01729399e-02 2.23804675e-02 2.03458797e-02
      1.01729399e-02 1.11902338e-02 1.22075286e-02 1.01729399e-02
      9.15564597e-03 5.08646993e-03 2.03458797e-02 1.72939990e-02
      1.52594103e-02 1.22075286e-02 1.11902338e-02 2.44150572e-02
      1.01729399e-02 1.62767041e-02 2.03458797e-02 7.12105818e-03
      2.03458797e-02 1.32248225e-02 7.42624626e-02 1.11902338e-02
      6.10376429e-03 1.42421164e-02</_>
    <_>
      0. 1.10701108e-02 1.47601478e-02 1.47601478e-02 2.21402217e-02
      7.38007389e-03 1.10701108e-02 1.10701108e-02 7.38007389e-03
      1.10701108e-02 3.69003695e-03 1.47601478e-02 1.14391148e-01
      1.10701108e-02 3.69003713e-02 6.64206669e-02 2.21402217e-02
      1.84501857e-02 3.69003695e-03 1.84501857e-02 1.10701108e-02
      2.21402217e-02 0. 1.10701108e-02 2.58302577e-02 1.84501857e-02
      2.58302577e-02 2.95202956e-02 7.38007389e-03 7.38007389e-03
      3.69003695e-03 2.58302577e-02 7.38007389e-03 1.10701108e-02
      6.64206669e-02 2.21402217e-02 3.32103334e-02 4.05904055e-02
      1.10701108e-02 1.84501857e-02 2.58302577e-02 7.38007389e-03
      4.42804433e-02 1.47601478e-02 2.58302577e-02 2.58302577e-02
      7.38007389e-03 0. 1.47601478e-02 1.47601478e-02</_>
    <_>
      1.12359552e-02 6.74157310e-03 1.12359552e-02 2.02247202e-02
      3.14606726e-02 0. 2.24719103e-02 2.47191004e-02 4.71910127e-02
      1.57303363e-02 1.79775283e-02 2.02247202e-02 1.79775283e-02
      2.92134844e-02 3.37078646e-02 1.34831462e-02 2.02247202e-02
      1.34831462e-02 2.24719103e-02 1.57303363e-02 6.74157310e-03
      1.34831462e-02 1.34831462e-02 6.74157310e-03 2.47191004e-02
      2.02247202e-02 3.14606726e-02 3.59550565e-02 2.47191004e-02
      3.59550565e-02 1.34831462e-02 1.12359552e-02 2.02247202e-02
      3.37078646e-02 3.14606726e-02 1.57303363e-02 1.57303363e-02
      3.59550565e-02 1.79775283e-02 8.98876414e-03 2.69662924e-02
      2.02247202e-02 1.79775283e-02 3.59550565e-02 1.79775283e-02
      1.79775283e-02 2.02247202e-02 1.12359552e-02 8.98876414e-03
      8.98876414e-03</_>
    <_>
      1.37795275e-02 7.87401572e-03 2.95275599e-02 2.36220472e-02
      1.77165344e-02 5.90551179e-03 2.75590550e-02 3.34645659e-02
      4.92125973e-02 9.84251965e-03 2.75590550e-02 4.33070883e-02
      2.36220472e-02 2.95275599e-02 2.16535442e-02 3.93700786e-03
      1.18110236e-02 7.87401572e-03 0. 1.96850393e-02 9.84251965e-03
      1.57480314e-02 1.18110236e-02 7.87401572e-03 2.55905502e-02
      3.14960629e-02 2.75590550e-02 1.96850393e-02 4.33070883e-02
      2.95275599e-02 9.84251965e-03 1.18110236e-02 2.55905502e-02
      2.75590550e-02 1.37795275e-02 9.84251965e-03 1.37795275e-02
      4.52755913e-02 2.75590550e-02 1.37795275e-02 2.75590550e-02
      7.87401572e-03 1.96850393e-02 3.74015756e-02 1.18110236e-02
      1.18110236e-02 1.18110236e-02 1.96850393e-02 1.18110236e-02
      1.18110236e-02</_>
    <_>
      2.71444097e-02 1.30293164e-02 9.77198780e-03 2.60586329e-02
      8.68621096e-03 1.62866451e-02 1.73724219e-02 1.84581988e-02
      1.73724219e-02 1.95439756e-02 5.42888185e-03 3.25732902e-02
      8.03474486e-02 1.19435396e-02 9.77198780e-03 2.71444097e-02
      3.04017384e-02 9.77198780e-03 1.73724219e-02 1.08577637e-02
      9.77198780e-03 1.95439756e-02 1.08577637e-03 1.30293164e-02
      2.06297506e-02 1.95439756e-02 8.68621096e-03 2.17155274e-02
      9.77198780e-03 1.08577637e-02 8.68621096e-03 3.04017384e-02
      1.30293164e-02 1.73724219e-02 1.95439756e-02 2.71444097e-02
      4.45168316e-02 2.71444097e-02 2.49728560e-02 1.52008692e-02
      1.30293164e-02 6.40608072e-02 3.04017384e-02 6.51465822e-03
      5.42888194e-02 1.84581988e-02 5.42888185e-03 1.95439756e-02
      6.51465822e-03 9.77198780e-03</_>
    <_>
      9.09090880e-03 9.09090880e-03 9.09090880e-03 3.63636352e-02 0. 0.
      9.09090880e-03 1.81818176e-02 3.63636352e-02 5.45454547e-02 0.
      4.54545431e-02 2.72727273e-02 3.63636352e-02 9.09090880e-03
      1.81818176e-02 0. 1.81818176e-02 2.72727273e-02 1.81818176e-02
      1.81818176e-02 1.81818176e-02 0. 9.09090880e-03 9.09090880e-03
      1.81818176e-02 2.72727273e-02 0. 4.54545431e-02 4.54545431e-02
      9.09090880e-03 0. 0. 2.72727273e-02 9.09090880e-03 1.81818176e-02
      7.27272704e-02 0. 0. 9.09090880e-03 1.81818176e-02 9.99999940e-02
      9.09090880e-03 3.63636352e-02 9.09090880e-03 9.09090880e-03
      9.09090880e-03 3.63636352e-02 5.45454547e-02 0.</_>
    <_>
      1.91082805e-02 3.18471342e-02 1.91082805e-02 3.82165611e-02
      5.73248416e-02 1.27388537e-02 1.27388537e-02 3.18471342e-02
      2.54777074e-02 5.09554148e-02 1.27388537e-02 6.36942685e-03
      5.09554148e-02 0. 1.91082805e-02 2.54777074e-02 0. 1.91082805e-02
      2.54777074e-02 6.36942685e-03 6.36942685e-03 6.36942685e-03
      1.91082805e-02 1.91082805e-02 0. 2.54777074e-02 0. 1.27388537e-02
      0. 0. 0. 1.91082805e-02 1.91082805e-02 3.18471342e-02
      1.91082805e-02 4.45859879e-02 6.36942685e-02 1.91082805e-02
      3.82165611e-02 1.91082805e-02 6.36942685e-03 3.82165611e-02
      2.54777074e-02 0. 7.64331222e-02 1.27388537e-02 0. 6.36942685e-03
      6.36942685e-03 0.</_>
    <_>
      2.44299658e-02 8.14332254e-03 1.46579798e-02 2.76872963e-02
      2.11726371e-02 2.28013024e-02 2.76872963e-02 1.79153085e-02
      1.30293155e-02 2.11726371e-02 2.11726371e-02 2.60586310e-02
      3.58306170e-02 2.11726371e-02 1.14006512e-02 1.62866451e-02
      3.74592803e-02 2.44299658e-02 1.46579798e-02 4.88599343e-03
      2.93159597e-02 2.60586310e-02 2.28013024e-02 1.62866444e-03
      2.11726371e-02 1.46579798e-02 4.23452742e-02 2.28013024e-02
      9.77198686e-03 8.14332254e-03 9.77198686e-03 3.25732902e-02
      6.51465775e-03 1.46579798e-02 4.88599343e-03 2.11726371e-02
      2.28013024e-02 1.95439737e-02 1.46579798e-02 1.14006512e-02
      1.95439737e-02 6.18892498e-02 2.60586310e-02 9.77198686e-03
      4.72312681e-02 2.93159597e-02 1.14006512e-02 8.14332254e-03
      6.51465775e-03 1.14006512e-02</_>
    <_>
      2.20994484e-02 1.10497242e-02 3.86740342e-02 1.65745858e-02
      1.10497242e-02 1.65745858e-02 1.10497242e-02 1.10497242e-02
      3.31491716e-02 2.20994484e-02 2.20994484e-02 2.20994484e-02
      3.86740342e-02 5.52486209e-03 2.20994484e-02 2.20994484e-02
      5.52486209e-03 2.76243109e-02 3.31491716e-02 1.65745858e-02
      5.52486209e-03 0. 0. 5.52486209e-03 5.52486209e-03 1.10497242e-02
      1.10497242e-02 3.31491716e-02 2.76243109e-02 6.07734844e-02
      1.10497242e-02 3.31491716e-02 0. 1.65745858e-02 2.76243109e-02
      3.86740342e-02 1.10497242e-02 4.41988967e-02 2.76243109e-02
      2.20994484e-02 2.76243109e-02 3.31491716e-02 1.10497242e-02
      1.65745858e-02 2.76243109e-02 2.20994484e-02 1.10497242e-02
      2.76243109e-02 5.52486209e-03 1.65745858e-02</_>
    <_>
      5.12820529e-03 4.10256423e-02 2.56410260e-02 2.05128212e-02
      3.07692327e-02 1.53846163e-02 5.12820529e-03 1.02564106e-02
      2.56410260e-02 2.56410260e-02 2.05128212e-02 2.05128212e-02
      5.12820520e-02 1.53846163e-02 2.56410260e-02 2.05128212e-02
      5.12820529e-03 2.05128212e-02 1.53846163e-02 3.07692327e-02
      2.05128212e-02 0. 5.12820529e-03 1.02564106e-02 1.02564106e-02
      2.56410260e-02 1.53846163e-02 3.58974375e-02 3.58974375e-02
      4.61538471e-02 1.02564106e-02 3.07692327e-02 5.12820529e-03
      1.53846163e-02 1.53846163e-02 2.05128212e-02 2.05128212e-02
      5.12820520e-02 1.02564106e-02 1.02564106e-02 1.53846163e-02
      1.02564106e-02 4.10256423e-02 3.07692327e-02 1.02564106e-02 0.
      5.12820529e-03 2.05128212e-02 2.05128212e-02 2.05128212e-02</_>
    <_>
      7.17299581e-02 2.10970454e-02 2.10970454e-02 1.68776363e-02
      2.10970454e-02 8.43881816e-03 8.43881816e-03 8.43881816e-03
      1.68776363e-02 0. 2.53164545e-02 3.37552726e-02 3.79746817e-02
      8.43881816e-03 2.10970454e-02 1.68776363e-02 5.06329089e-02
      1.26582272e-02 1.26582272e-02 8.43881816e-03 4.21940908e-03
      4.21940908e-02 3.79746817e-02 8.43881816e-03 2.53164545e-02
      2.10970454e-02 1.68776363e-02 2.95358635e-02 1.26582272e-02
      2.10970454e-02 0. 4.21940908e-03 3.37552726e-02 0. 2.10970454e-02
      1.68776363e-02 2.10970454e-02 6.75105453e-02 2.10970454e-02
      2.10970454e-02 3.37552726e-02 0. 3.37552726e-02 1.68776363e-02
      1.68776363e-02 4.21940908e-03 8.43881816e-03 1.26582272e-02
      1.26582272e-02 1.26582272e-02</_>
    <_>
      1.67130921e-02 1.94986071e-02 3.34261842e-02 1.11420611e-02
      1.94986071e-02 5.57103055e-03 1.39275761e-02 1.67130921e-02
      1.67130921e-02 5.29247895e-02 2.78551523e-02 2.50696372e-02
      3.89972143e-02 8.35654605e-03 5.57103055e-03 1.94986071e-02
      2.50696372e-02 4.45682444e-02 2.78551523e-02 1.39275761e-02
      2.78551523e-02 1.67130921e-02 2.50696372e-02 5.57103055e-03
      8.35654605e-03 8.35654605e-03 3.62116992e-02 2.22841222e-02
      3.06406673e-02 1.39275761e-02 2.78551523e-02 2.50696372e-02
      5.57103055e-03 5.57103055e-03 2.78551527e-03 1.39275761e-02
      5.57103045e-02 2.50696372e-02 2.50696372e-02 1.39275761e-02
      8.35654605e-03 3.89972143e-02 2.22841222e-02 0. 8.35654605e-03
      1.39275761e-02 2.78551523e-02 1.39275761e-02 8.35654605e-03
      1.94986071e-02</_>
    <_>
      1.56494528e-02 1.56494528e-02 2.97339596e-02 2.03442872e-02
      2.19092332e-02 3.59937400e-02 1.40845068e-02 3.28638479e-02
      1.40845068e-02 3.28638479e-02 4.85133007e-02 1.56494528e-02
      7.82472640e-03 9.38967150e-03 7.82472640e-03 3.59937400e-02
      1.72143970e-02 3.91236320e-02 2.66040694e-02 4.69483575e-03
      1.25195617e-02 2.50391234e-02 3.75586860e-02 1.56494528e-02
      2.34741773e-02 4.69483575e-03 2.03442872e-02 1.87793430e-02
      7.82472640e-03 1.25195617e-02 1.56494528e-02 2.81690136e-02
      7.82472640e-03 4.69483575e-03 1.40845068e-02 1.72143970e-02
      3.28638479e-02 1.25195617e-02 1.72143970e-02 1.40845068e-02
      1.25195617e-02 3.12989056e-02 2.81690136e-02 6.25978084e-03
      9.38967150e-03 1.72143970e-02 5.47730811e-02 1.56494528e-02
      3.12989042e-03 3.28638479e-02</_>
    <_>
      3.06122452e-02 1.53061226e-02 2.04081628e-02 2.04081628e-02
      2.55102031e-02 3.06122452e-02 0. 2.04081628e-02 4.08163257e-02
      2.04081628e-02 1.53061226e-02 1.02040814e-02 4.59183678e-02
      1.02040814e-02 1.53061226e-02 3.57142836e-02 1.02040814e-02
      1.02040814e-02 1.53061226e-02 1.02040814e-02 1.02040814e-02
      1.53061226e-02 1.02040814e-02 1.53061226e-02 5.10204071e-03
      1.02040814e-02 1.53061226e-02 1.02040814e-02 1.02040814e-02 0.
      1.02040814e-02 3.57142836e-02 2.04081628e-02 1.02040814e-02
      3.06122452e-02 2.04081628e-02 7.65306130e-02 4.59183678e-02
      2.55102031e-02 2.04081628e-02 1.02040814e-02 2.04081628e-02
      2.55102031e-02 5.10204071e-03 2.04081628e-02 3.06122452e-02
      3.06122452e-02 1.53061226e-02 5.10204071e-03 3.57142836e-02</_>
    <_>
      8.77192989e-03 8.77192989e-03 8.77192989e-03 4.38596494e-02
      8.77192989e-03 7.89473653e-02 1.75438598e-02 2.63157897e-02
      8.77192989e-03 8.77192989e-03 3.50877196e-02 3.50877196e-02
      8.77192989e-02 8.77192989e-03 8.77192989e-03 6.14035092e-02
      1.75438598e-02 1.75438598e-02 0. 8.77192989e-03 1.75438598e-02
      8.77192989e-03 0. 0. 3.50877196e-02 4.38596494e-02 1.75438598e-02
      3.50877196e-02 8.77192989e-03 8.77192989e-03 1.75438598e-02 0.
      8.77192989e-03 8.77192989e-03 3.50877196e-02 1.75438598e-02
      2.63157897e-02 8.77192989e-03 2.63157897e-02 8.77192989e-03
      8.77192989e-03 8.77192989e-03 3.50877196e-02 2.63157897e-02
      5.26315793e-02 1.75438598e-02 0. 0. 1.75438598e-02 0.</_>
    <_>
      2.95454543e-02 1.36363637e-02 6.81818184e-03 2.04545446e-02
      1.81818176e-02 3.40909064e-02 1.81818176e-02 2.04545446e-02
      2.49999985e-02 3.40909064e-02 2.49999985e-02 1.59090906e-02
      8.63636360e-02 6.81818184e-03 1.81818176e-02 1.36363637e-02
      1.59090906e-02 3.63636352e-02 1.36363637e-02 1.13636358e-02
      9.09090880e-03 1.59090906e-02 9.09090880e-03 1.59090906e-02
      1.13636358e-02 1.59090906e-02 2.27272715e-02 1.59090906e-02
      4.54545440e-03 4.54545440e-03 1.81818176e-02 3.86363640e-02
      1.36363637e-02 2.04545446e-02 9.09090880e-03 3.63636352e-02
      4.77272719e-02 1.81818176e-02 1.59090906e-02 9.09090880e-03
      9.09090880e-03 3.86363640e-02 2.49999985e-02 4.54545440e-03
      2.95454543e-02 9.09090880e-03 2.49999985e-02 9.09090880e-03
      2.27272720e-03 3.18181813e-02</_>
    <_>
      9.73236002e-03 9.73236002e-03 9.73236002e-03 3.16301696e-02
      1.45985400e-02 2.91970801e-02 1.45985400e-02 2.43308991e-02
      1.21654496e-02 4.62287106e-02 7.29927002e-03 1.94647200e-02
      3.40632610e-02 1.21654496e-02 4.86618001e-03 2.43308991e-02
      2.43308991e-02 2.43308991e-02 3.40632610e-02 4.86618001e-03
      1.21654496e-02 2.67639905e-02 9.73236002e-03 1.94647200e-02
      1.70316305e-02 2.91970801e-02 1.21654496e-02 1.94647200e-02
      9.73236002e-03 1.45985400e-02 7.29927002e-03 1.94647200e-02
      9.73236002e-03 2.67639905e-02 1.94647200e-02 2.18978096e-02
      5.35279810e-02 1.45985400e-02 3.16301696e-02 3.40632610e-02
      2.43308991e-02 1.94647200e-02 2.91970801e-02 1.21654496e-02
      4.13625315e-02 2.18978096e-02 2.43308991e-02 9.73236002e-03
      7.29927002e-03 9.73236002e-03</_>
    <_>
      3.10880821e-02 1.03626940e-02 5.18134702e-03 2.59067342e-02
      1.29533671e-02 3.10880821e-02 1.03626940e-02 2.33160611e-02
      2.59067351e-03 3.36787552e-02 1.81347150e-02 3.36787552e-02
      6.21761642e-02 2.07253881e-02 1.03626940e-02 1.81347150e-02
      1.81347150e-02 1.55440411e-02 1.29533671e-02 2.59067351e-03
      5.18134702e-03 2.84974091e-02 7.77202053e-03 7.77202053e-03
      2.07253881e-02 1.29533671e-02 3.10880821e-02 2.07253881e-02
      2.07253881e-02 1.29533671e-02 1.55440411e-02 3.36787552e-02
      2.59067351e-03 3.36787552e-02 1.29533671e-02 3.36787552e-02
      3.88601013e-02 1.29533671e-02 1.81347150e-02 1.03626940e-02
      1.81347150e-02 4.40414511e-02 1.81347150e-02 7.77202053e-03
      3.36787552e-02 3.62694301e-02 1.55440411e-02 2.33160611e-02
      2.59067351e-03 2.07253881e-02</_>
    <_>
      1.41843967e-02 2.12765951e-02 4.25531901e-02 0. 0. 0. 0.
      1.41843967e-02 5.67375869e-02 0. 7.09219836e-03 1.41843967e-02
      8.51063803e-02 2.83687934e-02 2.12765951e-02 2.12765951e-02 0. 0.
      1.41843967e-02 1.41843967e-02 2.12765951e-02 1.41843967e-02
      2.12765951e-02 2.12765951e-02 2.12765951e-02 3.54609936e-02
      7.09219836e-03 0. 4.25531901e-02 3.54609936e-02 7.09219836e-03
      7.09219836e-03 3.54609936e-02 2.12765951e-02 3.54609936e-02
      7.09219836e-03 0. 6.38297871e-02 5.67375869e-02 1.41843967e-02
      2.83687934e-02 3.54609936e-02 1.41843967e-02 1.41843967e-02 0.
      2.12765951e-02 2.12765951e-02 0. 1.41843967e-02 2.83687934e-02</_>
    <_>
      5.19480519e-02 2.33766232e-02 2.59740255e-03 2.20779218e-02
      1.16883116e-02 1.68831162e-02 2.59740259e-02 2.33766232e-02
      1.68831162e-02 1.16883116e-02 1.16883116e-02 5.97402602e-02
      9.09090880e-03 2.20779218e-02 1.16883116e-02 2.20779218e-02
      5.06493486e-02 9.09090880e-03 2.07792204e-02 6.49350649e-03
      2.59740255e-03 3.37662324e-02 1.68831162e-02 1.29870130e-02
      2.59740259e-02 2.59740259e-02 5.19480510e-03 4.02597412e-02
      2.46753246e-02 1.94805190e-02 1.42857144e-02 2.33766232e-02
      1.94805190e-02 1.16883116e-02 2.20779218e-02 3.37662324e-02
      1.94805190e-02 1.03896102e-02 2.85714287e-02 2.98701301e-02
      2.46753246e-02 2.85714287e-02 2.20779218e-02 3.89610371e-03
      2.85714287e-02 3.89610371e-03 0. 2.98701301e-02 1.29870127e-03
      6.49350649e-03</_>
    <_>
      4.64715995e-02 1.37693631e-02 2.40963846e-02 2.40963846e-02
      8.60585179e-03 1.54905338e-02 4.64715995e-02 2.06540450e-02
      1.20481923e-02 1.37693631e-02 3.44234076e-03 1.72117036e-02
      1.72117036e-02 1.89328734e-02 3.95869203e-02 2.75387261e-02
      3.44234072e-02 1.37693631e-02 1.89328734e-02 1.37693631e-02
      8.60585179e-03 4.99139428e-02 5.16351126e-03 1.54905338e-02
      3.61445770e-02 1.20481923e-02 1.72117036e-02 1.20481923e-02
      1.72117036e-02 1.89328734e-02 1.03270225e-02 1.89328734e-02
      5.16351126e-03 1.54905338e-02 4.47504297e-02 2.92598959e-02
      2.06540450e-02 3.78657468e-02 1.72117036e-02 1.37693631e-02
      1.72117036e-02 2.58175563e-02 2.40963846e-02 3.44234076e-03
      2.06540450e-02 3.44234072e-02 1.72117038e-03 5.16351126e-03
      1.72117038e-03 2.92598959e-02</_>
    <_>
      2.27272734e-02 2.84090918e-03 1.13636367e-02 3.97727266e-02
      4.54545468e-02 1.70454551e-02 1.70454551e-02 3.40909101e-02
      1.42045459e-02 2.55681835e-02 4.82954569e-02 8.52272753e-03
      3.69318202e-02 2.27272734e-02 1.42045459e-02 2.55681835e-02
      1.98863633e-02 1.42045459e-02 5.68181835e-03 0. 1.13636367e-02
      2.84090918e-02 4.54545468e-02 1.42045459e-02 1.98863633e-02
      8.52272753e-03 1.42045459e-02 2.55681835e-02 5.68181835e-03
      5.68181835e-03 2.84090918e-03 2.84090918e-02 1.42045459e-02
      1.42045459e-02 1.13636367e-02 2.84090918e-02 4.82954569e-02
      2.27272734e-02 2.55681835e-02 2.27272734e-02 5.68181835e-03
      4.54545468e-02 3.12500000e-02 0. 2.55681835e-02 1.13636367e-02
      1.13636367e-02 1.70454551e-02 0. 2.84090918e-02</_>
    <_>
      2.78184488e-02 8.78477283e-03 1.02489023e-02 2.63543185e-02
      2.04978045e-02 3.22108343e-02 2.48901900e-02 1.46412887e-02
      2.19619330e-02 2.19619330e-02 1.90336742e-02 3.22108343e-02
      2.92825773e-02 1.31771592e-02 2.19619330e-02 1.61054172e-02
      3.51390913e-02 2.19619330e-02 2.34260615e-02 5.85651537e-03
      8.78477283e-03 2.63543185e-02 2.04978045e-02 2.48901900e-02
      2.48901900e-02 1.46412887e-02 2.04978045e-02 2.34260615e-02 0.
      1.17130307e-02 1.90336742e-02 2.63543185e-02 1.90336742e-02
      1.46412887e-02 2.04978045e-02 1.17130307e-02 3.36749628e-02
      3.36749628e-02 2.63543185e-02 8.78477283e-03 1.02489023e-02
      2.19619330e-02 1.61054172e-02 1.17130307e-02 2.04978045e-02
      1.90336742e-02 2.92825773e-02 1.46412887e-02 4.39238641e-03
      3.51390913e-02</_>
    <_>
      1.53846163e-02 1.53846163e-02 1.09890113e-02 2.19780225e-02
      2.85714306e-02 2.41758246e-02 2.63736285e-02 2.19780225e-02
      2.41758246e-02 1.31868143e-02 1.31868143e-02 1.53846163e-02
      5.05494513e-02 2.19780225e-02 3.51648368e-02 2.85714306e-02
      4.39560460e-03 2.41758246e-02 1.31868143e-02 8.79120920e-03
      1.75824184e-02 1.31868143e-02 1.09890113e-02 2.85714306e-02
      3.51648368e-02 1.97802205e-02 2.63736285e-02 1.97802205e-02
      2.19780225e-02 3.73626389e-02 1.09890113e-02 1.97802205e-02
      1.97802205e-02 1.75824184e-02 2.63736285e-02 1.09890113e-02
      2.41758246e-02 1.75824184e-02 3.07692327e-02 1.53846163e-02
      1.75824184e-02 1.53846163e-02 1.97802205e-02 1.09890113e-02
      3.29670347e-02 1.09890113e-02 8.79120920e-03 1.53846163e-02
      1.97802205e-02 6.59340713e-03</_>
    <_>
      4.00000028e-02 8.00000038e-03 2.40000002e-02 2.40000002e-02
      8.00000038e-03 1.60000008e-02 0. 8.00000038e-03 4.00000028e-02
      1.60000008e-02 1.60000008e-02 9.60000008e-02 3.20000015e-02
      1.60000008e-02 2.40000002e-02 3.20000015e-02 4.80000004e-02 0.
      8.00000038e-03 8.00000038e-03 8.00000038e-03 4.00000028e-02
      8.00000038e-03 2.40000002e-02 2.40000002e-02 4.00000028e-02
      8.00000038e-03 0. 8.00000038e-03 2.40000002e-02 8.00000038e-03
      1.60000008e-02 8.00000038e-03 2.40000002e-02 4.00000028e-02 0.
      8.00000038e-03 8.00000038e-03 3.20000015e-02 2.40000002e-02
      1.60000008e-02 8.00000038e-03 2.40000002e-02 3.20000015e-02
      1.60000008e-02 2.40000002e-02 0. 3.20000015e-02 8.00000038e-03
      2.40000002e-02</_>
    <_>
      2.40963846e-02 1.20481923e-02 3.01204808e-02 1.80722885e-02
      6.02409616e-03 4.81927693e-02 3.01204808e-02 1.80722885e-02
      2.40963846e-02 1.20481923e-02 3.61445770e-02 1.20481923e-02
      2.40963846e-02 3.01204808e-02 2.40963846e-02 3.61445770e-02
      6.02409616e-03 2.40963846e-02 2.40963846e-02 6.02409616e-03
      1.80722885e-02 1.80722885e-02 0. 1.80722885e-02 1.20481923e-02
      6.02409616e-03 6.02409616e-03 3.01204808e-02 1.20481923e-02
      1.80722885e-02 1.80722885e-02 2.40963846e-02 1.80722885e-02
      4.81927693e-02 2.40963846e-02 1.20481923e-02 4.21686731e-02
      6.02409616e-02 2.40963846e-02 1.20481923e-02 1.80722885e-02
      1.80722885e-02 3.61445770e-02 1.80722885e-02 6.02409616e-03
      3.01204808e-02 0. 0. 6.02409616e-03 0.</_>
    <_>
      4.25531901e-02 8.51063803e-03 3.82978693e-02 1.27659570e-02
      8.51063803e-03 2.55319141e-02 2.55319141e-02 1.27659570e-02
      2.12765951e-02 1.70212761e-02 1.27659570e-02 8.08510631e-02
      5.95744662e-02 1.27659570e-02 1.70212761e-02 2.55319141e-02
      4.68085110e-02 8.51063803e-03 8.51063803e-03 4.25531901e-03
      8.51063803e-03 2.12765951e-02 1.70212761e-02 4.25531901e-03
      3.40425521e-02 3.40425521e-02 0. 2.12765951e-02 1.27659570e-02
      1.27659570e-02 4.25531901e-03 8.51063803e-03 1.70212761e-02
      2.12765951e-02 2.12765951e-02 2.55319141e-02 1.70212761e-02
      4.68085110e-02 3.40425521e-02 1.27659570e-02 1.27659570e-02 0.
      2.12765951e-02 1.27659570e-02 2.97872331e-02 8.51063803e-03 0.
      2.12765951e-02 4.25531901e-03 2.55319141e-02</_>
    <_>
      2.83286115e-03 1.41643062e-02 5.09915017e-02 2.26628892e-02
      3.39943320e-02 2.54957508e-02 1.98300276e-02 2.54957508e-02
      1.69971660e-02 3.11614722e-02 2.83286124e-02 5.66572230e-03
      3.96600552e-02 1.13314446e-02 1.69971660e-02 8.49858299e-03
      1.13314446e-02 1.98300276e-02 1.98300276e-02 1.13314446e-02
      2.54957508e-02 1.13314446e-02 1.41643062e-02 2.54957508e-02
      1.41643062e-02 1.98300276e-02 1.13314446e-02 1.69971660e-02
      1.69971660e-02 2.54957508e-02 1.98300276e-02 1.98300276e-02
      1.41643062e-02 1.69971660e-02 1.69971660e-02 1.13314446e-02
      2.54957508e-02 4.24929187e-02 2.26628892e-02 8.49858299e-03
      1.69971660e-02 8.49858299e-03 1.69971660e-02 2.54957508e-02
      1.98300276e-02 1.98300276e-02 3.68271954e-02 1.41643062e-02
      2.83286124e-02 1.69971660e-02</_>
    <_>
      2.33160611e-02 1.29533671e-02 1.03626940e-02 2.07253881e-02
      2.59067351e-03 1.55440411e-02 3.62694301e-02 2.33160611e-02
      4.14507762e-02 5.18134702e-03 1.81347150e-02 1.03626940e-02
      8.03108811e-02 1.55440411e-02 1.81347150e-02 1.81347150e-02
      1.29533671e-02 1.03626940e-02 5.18134702e-03 5.18134702e-03
      3.10880821e-02 1.55440411e-02 2.59067351e-03 3.10880821e-02
      7.77202053e-03 1.55440411e-02 2.07253881e-02 1.29533671e-02
      1.81347150e-02 1.55440411e-02 2.59067342e-02 1.81347150e-02
      1.29533671e-02 2.84974091e-02 1.03626940e-02 1.29533671e-02
      4.66321222e-02 3.36787552e-02 5.18134702e-03 1.55440411e-02
      2.84974091e-02 4.14507762e-02 1.03626940e-02 2.07253881e-02
      1.03626940e-02 2.84974091e-02 2.59067342e-02 3.10880821e-02
      3.36787552e-02 2.59067351e-03</_>
    <_>
      2.22222209e-02 1.48148146e-02 2.96296291e-02 3.70370373e-02
      2.96296291e-02 2.96296291e-02 7.40740728e-03 2.96296291e-02
      7.40740728e-03 2.96296291e-02 2.22222209e-02 1.48148146e-02
      5.18518500e-02 1.48148146e-02 7.40740728e-03 7.40740728e-03
      7.40740728e-03 2.96296291e-02 2.22222209e-02 2.22222209e-02 0.
      2.22222209e-02 2.96296291e-02 7.40740728e-03 0. 7.40740728e-03
      7.40740728e-03 7.40740728e-03 0. 7.40740728e-03 2.22222209e-02
      5.18518500e-02 1.48148146e-02 0. 7.40740728e-03 2.22222209e-02
      5.18518500e-02 3.70370373e-02 2.22222209e-02 2.22222209e-02
      2.96296291e-02 4.44444418e-02 4.44444418e-02 0. 2.96296291e-02
      7.40740728e-03 7.40740728e-03 7.40740728e-03 1.48148146e-02
      3.70370373e-02</_>
    <_>
      1.51515156e-02 1.51515156e-02 1.89393945e-02 3.78787890e-03
      1.89393945e-02 3.78787890e-03 1.51515156e-02 3.03030312e-02
      2.65151523e-02 7.57575780e-03 1.51515156e-02 1.89393945e-02
      6.81818202e-02 2.27272734e-02 3.78787890e-03 3.03030312e-02
      2.27272734e-02 2.27272734e-02 1.51515156e-02 1.89393945e-02
      1.13636367e-02 1.13636367e-02 3.40909101e-02 2.65151523e-02
      1.13636367e-02 2.27272734e-02 1.89393945e-02 1.51515156e-02
      2.27272734e-02 1.89393945e-02 2.27272734e-02 2.27272734e-02
      2.27272734e-02 7.57575780e-03 2.65151523e-02 1.13636367e-02
      1.13636367e-02 3.03030312e-02 2.27272734e-02 1.89393945e-02
      4.54545468e-02 2.65151523e-02 1.13636367e-02 7.57575780e-03
      1.89393945e-02 3.78787890e-03 7.57575780e-03 2.65151523e-02
      1.51515156e-02 5.30303046e-02</_>
    <_>
      1.57068074e-02 5.23560215e-03 8.72600358e-03 1.91972069e-02
      2.09424086e-02 2.09424086e-02 2.09424086e-02 3.31588127e-02
      2.09424086e-02 2.44328100e-02 2.26876102e-02 3.49040143e-02
      3.31588127e-02 2.09424086e-02 1.91972069e-02 3.14136147e-02
      2.26876102e-02 2.44328100e-02 2.44328100e-02 8.72600358e-03
      1.91972069e-02 2.96684131e-02 1.39616057e-02 2.96684131e-02
      2.61780098e-02 1.39616057e-02 1.04712043e-02 4.01396155e-02
      1.22164050e-02 1.39616057e-02 2.26876102e-02 1.57068074e-02
      1.04712043e-02 1.57068074e-02 2.44328100e-02 2.44328100e-02
      3.14136147e-02 1.91972069e-02 2.26876102e-02 1.22164050e-02
      1.74520072e-02 2.09424086e-02 2.79232115e-02 6.98080286e-03
      1.74520072e-02 1.74520072e-02 6.98080286e-03 1.22164050e-02
      1.57068074e-02 1.57068074e-02</_>
    <_>
      3.25203240e-02 8.13008100e-03 1.62601620e-02 2.23577227e-02
      1.21951215e-02 4.06504050e-03 1.82926822e-02 2.23577227e-02
      2.03252025e-02 1.82926822e-02 3.04878037e-02 1.62601620e-02
      7.11382106e-02 2.03252025e-02 1.42276417e-02 1.82926822e-02
      2.23577227e-02 2.43902430e-02 2.23577227e-02 8.13008100e-03
      1.42276417e-02 1.01626012e-02 2.43902430e-02 2.64227632e-02
      1.62601620e-02 2.23577227e-02 3.45528424e-02 1.82926822e-02
      2.03252025e-02 1.01626012e-02 2.64227632e-02 2.43902430e-02
      6.09756075e-03 4.06504050e-03 2.43902430e-02 1.01626012e-02
      1.82926822e-02 2.84552835e-02 1.82926822e-02 1.21951215e-02
      2.23577227e-02 1.42276417e-02 2.64227632e-02 1.82926822e-02
      1.62601620e-02 1.42276417e-02 3.45528424e-02 1.82926822e-02
      2.84552835e-02 1.42276417e-02</_>
    <_>
      2.70270277e-02 6.75675692e-03 1.35135138e-02 3.37837860e-02
      1.35135138e-02 0. 6.75675692e-03 1.35135138e-02 2.02702712e-02
      6.75675692e-03 2.70270277e-02 2.70270277e-02 8.10810849e-02
      1.35135138e-02 3.37837860e-02 2.02702712e-02 1.35135138e-02
      1.35135138e-02 0. 2.02702712e-02 6.75675692e-03 3.37837860e-02
      4.05405425e-02 6.75675692e-03 1.35135138e-02 2.70270277e-02
      6.75675692e-03 1.35135138e-02 2.02702712e-02 6.75675692e-03
      6.75675692e-03 1.35135138e-02 2.70270277e-02 1.35135138e-02
      2.02702712e-02 6.75675720e-02 4.05405425e-02 4.05405425e-02
      3.37837860e-02 1.35135138e-02 1.35135138e-02 1.35135138e-02
      2.70270277e-02 2.02702712e-02 2.70270277e-02 1.35135138e-02
      6.75675692e-03 1.35135138e-02 6.75675692e-03 1.35135138e-02</_>
    <_>
      9.34579410e-03 1.86915882e-02 1.86915882e-02 1.86915882e-02 0.
      2.80373823e-02 1.86915882e-02 0. 4.67289686e-02 9.34579410e-03
      9.34579410e-03 1.86915882e-02 2.80373823e-02 9.34579410e-03
      9.34579410e-03 7.47663528e-02 0. 1.86915882e-02 2.80373823e-02
      1.86915882e-02 0. 0. 0. 0. 0. 1.86915882e-02 0. 3.73831764e-02
      2.80373823e-02 9.34579410e-03 0. 9.34579410e-03 9.34579410e-03
      3.73831764e-02 9.34579410e-03 4.67289686e-02 5.60747646e-02
      8.41121450e-02 1.86915882e-02 1.86915882e-02 1.86915882e-02
      2.80373823e-02 4.67289686e-02 2.80373823e-02 1.86915882e-02
      5.60747646e-02 9.34579410e-03 9.34579410e-03 9.34579410e-03
      9.34579410e-03</_>
    <_>
      1.12359552e-02 2.24719103e-02 3.37078646e-02 1.12359552e-02
      1.12359552e-02 0. 1.12359552e-02 1.12359552e-02 2.24719103e-02
      1.12359552e-02 3.37078646e-02 3.37078646e-02 4.49438207e-02
      2.24719103e-02 1.12359552e-02 2.24719103e-02 0. 1.12359552e-02 0.
      2.24719103e-02 0. 1.12359552e-02 4.49438207e-02 3.37078646e-02 0.
      2.24719103e-02 4.49438207e-02 2.24719103e-02 2.24719103e-02
      3.37078646e-02 0. 2.24719103e-02 0. 2.24719103e-02 1.12359552e-02
      3.37078646e-02 7.86516890e-02 4.49438207e-02 4.49438207e-02
      2.24719103e-02 3.37078646e-02 0. 2.24719103e-02 0. 1.12359552e-02
      0. 0. 3.37078646e-02 3.37078646e-02 0.</_>
    <_>
      0. 2.94117667e-02 3.92156877e-02 1.96078438e-02 0. 9.80392192e-03
      0. 2.94117667e-02 9.80392192e-03 6.86274543e-02 9.80392192e-03
      9.80392192e-03 1.96078438e-02 4.90196086e-02 1.96078438e-02
      9.80392192e-03 0. 4.90196086e-02 3.92156877e-02 1.96078438e-02
      3.92156877e-02 1.96078438e-02 0. 0. 0. 2.94117667e-02 0. 0.
      3.92156877e-02 9.80392192e-03 9.80392192e-03 0. 0. 2.94117667e-02
      2.94117667e-02 9.80392192e-03 4.90196086e-02 5.88235334e-02
      2.94117667e-02 9.80392192e-03 2.94117667e-02 6.86274543e-02
      4.90196086e-02 0. 1.96078438e-02 9.80392192e-03 0. 0.
      1.96078438e-02 9.80392192e-03</_>
    <_>
      2.42424235e-02 1.81818176e-02 5.45454547e-02 1.21212117e-02
      1.21212117e-02 6.06060587e-03 2.42424235e-02 1.81818176e-02
      5.45454547e-02 1.21212117e-02 6.06060587e-03 3.03030293e-02
      3.03030293e-02 3.03030293e-02 3.63636352e-02 6.06060587e-03
      2.42424235e-02 3.03030293e-02 1.81818176e-02 1.21212117e-02
      3.63636352e-02 3.03030293e-02 1.21212117e-02 1.21212117e-02
      1.21212117e-02 2.42424235e-02 2.42424235e-02 1.21212117e-02
      2.42424235e-02 1.81818176e-02 6.06060587e-03 0. 2.42424235e-02
      2.42424235e-02 2.42424235e-02 6.06060587e-03 1.21212117e-02
      4.24242392e-02 6.06060587e-03 2.42424235e-02 2.42424235e-02
      3.63636352e-02 1.21212117e-02 6.06060587e-03 1.21212117e-02
      1.21212117e-02 2.42424235e-02 6.06060587e-03 1.81818176e-02
      1.21212117e-02</_>
    <_>
      2.50000004e-02 1.25000002e-02 6.25000009e-03 1.87500007e-02
      1.25000002e-02 2.50000004e-02 6.25000009e-03 0. 2.50000004e-02
      1.87500007e-02 7.50000030e-02 1.87500007e-02 1.25000002e-02
      1.87500007e-02 3.75000015e-02 3.75000015e-02 6.25000009e-03
      1.87500007e-02 1.25000002e-02 1.25000002e-02 1.87500007e-02
      1.25000002e-02 3.12500000e-02 0. 1.87500007e-02 2.50000004e-02
      1.25000002e-02 2.50000004e-02 1.25000002e-02 3.75000015e-02
      1.25000002e-02 1.25000002e-02 1.25000002e-02 2.50000004e-02
      1.87500007e-02 3.12500000e-02 4.37499993e-02 2.50000004e-02
      3.12500000e-02 6.25000009e-03 2.50000004e-02 4.37499993e-02
      3.75000015e-02 1.25000002e-02 0. 1.87500007e-02 6.25000009e-03
      1.25000002e-02 1.25000002e-02 1.87500007e-02</_>
    <_>
      2.14285720e-02 7.14285718e-03 3.57142873e-02 7.14285718e-03
      1.42857144e-02 1.42857144e-02 1.42857144e-02 2.14285720e-02
      4.28571440e-02 1.42857144e-02 0. 1.42857144e-02 2.14285720e-02
      5.00000007e-02 2.14285720e-02 7.14285718e-03 2.14285720e-02 0. 0.
      2.14285720e-02 2.14285720e-02 7.14285718e-03 6.42857179e-02
      2.14285720e-02 7.14285718e-03 7.85714313e-02 2.85714287e-02
      2.14285720e-02 3.57142873e-02 5.00000007e-02 7.14285718e-03
      7.14285718e-03 1.42857144e-02 2.14285720e-02 2.85714287e-02
      2.85714287e-02 0. 2.14285720e-02 2.85714287e-02 1.42857144e-02
      1.42857144e-02 0. 2.14285720e-02 2.14285720e-02 7.14285718e-03
      2.14285720e-02 7.14285718e-03 2.85714287e-02 1.42857144e-02
      7.14285718e-03</_>
    <_>
      0. 2.83018872e-02 4.71698120e-02 2.83018872e-02 2.83018872e-02
      1.88679248e-02 2.83018872e-02 0. 2.83018872e-02 0. 2.83018872e-02
      2.83018872e-02 4.71698120e-02 1.88679248e-02 2.83018872e-02
      1.88679248e-02 0. 1.88679248e-02 0. 9.43396240e-03 3.77358496e-02
      3.77358496e-02 0. 9.43396240e-03 1.88679248e-02 5.66037744e-02 0.
      9.43396240e-03 9.43396240e-03 4.71698120e-02 0. 0. 0.
      3.77358496e-02 2.83018872e-02 1.88679248e-02 3.77358496e-02
      1.03773586e-01 4.71698120e-02 9.43396240e-03 1.88679248e-02 0.
      9.43396240e-03 1.88679248e-02 0. 0. 0. 0. 3.77358496e-02 0.</_>
    <_>
      6.80272095e-03 6.80272095e-03 0. 6.80272095e-03 2.72108838e-02
      2.04081628e-02 0. 0. 1.36054419e-02 2.72108838e-02 4.08163257e-02
      6.80272095e-03 2.72108838e-02 6.80272095e-03 1.36054419e-02
      2.04081628e-02 3.40136066e-02 1.36054419e-02 4.76190448e-02
      3.40136066e-02 2.04081628e-02 2.04081628e-02 1.36054419e-02
      6.80272095e-03 6.80272095e-03 4.08163257e-02 6.80272095e-03
      6.80272095e-03 1.36054419e-02 1.36054419e-02 0. 2.04081628e-02
      1.36054419e-02 2.72108838e-02 6.80272095e-03 2.72108838e-02
      4.08163257e-02 4.76190448e-02 7.48299286e-02 1.36054419e-02
      2.04081628e-02 6.12244904e-02 3.40136066e-02 1.36054419e-02
      6.80272095e-03 3.40136066e-02 6.80272095e-03 6.80272095e-03
      6.80272095e-03 3.40136066e-02</_>
    <_>
      1.53846154e-02 7.69230770e-03 3.84615399e-02 3.84615399e-02
      2.30769236e-02 1.53846154e-02 7.69230770e-03 2.30769236e-02
      4.61538471e-02 1.53846154e-02 2.30769236e-02 3.07692308e-02
      3.84615399e-02 3.84615399e-02 1.53846154e-02 7.69230770e-03
      7.69230770e-03 2.30769236e-02 0. 2.30769236e-02 1.53846154e-02
      1.53846154e-02 3.07692308e-02 0. 2.30769236e-02 2.30769236e-02
      2.30769236e-02 1.53846154e-02 2.30769236e-02 1.53846154e-02
      1.53846154e-02 0. 0. 2.30769236e-02 0. 7.69230770e-03
      3.07692308e-02 3.07692308e-02 3.84615399e-02 0. 3.07692308e-02
      1.53846154e-02 4.61538471e-02 3.07692308e-02 2.30769236e-02
      7.69230770e-03 0. 1.53846154e-02 3.07692308e-02 3.07692308e-02</_>
    <_>
      8.33333377e-03 4.16666679e-02 8.33333377e-03 8.33333377e-03 0.
      2.50000022e-02 1.66666675e-02 0. 1.66666675e-02 0. 1.66666675e-02
      8.33333377e-03 3.33333351e-02 1.66666675e-02 5.83333373e-02
      2.50000022e-02 4.16666679e-02 0. 8.33333377e-03 0. 1.66666675e-02
      8.33333377e-03 0. 0. 3.33333351e-02 2.50000022e-02 4.16666679e-02
      1.66666675e-02 8.33333377e-03 0. 1.66666675e-02 1.66666675e-02 0.
      3.33333351e-02 1.66666675e-02 5.00000045e-02 1.66666675e-02
      4.16666679e-02 1.66666675e-02 4.16666679e-02 8.33333377e-03
      6.66666701e-02 4.16666679e-02 1.66666675e-02 8.33333377e-03
      1.66666675e-02 0. 5.83333373e-02 8.33333377e-03 4.16666679e-02</_>
    <_>
      1.18343197e-02 1.77514795e-02 3.55029590e-02 2.36686394e-02 0. 0.
      1.18343197e-02 2.95857992e-02 1.18343197e-02 0. 5.91715984e-03
      2.36686394e-02 2.95857992e-02 1.18343197e-02 4.14201170e-02
      1.18343197e-02 3.55029590e-02 1.18343197e-02 5.91715984e-03
      5.91715984e-03 2.36686394e-02 3.55029590e-02 5.91715984e-03
      1.18343197e-02 5.32544404e-02 4.73372787e-02 2.36686394e-02
      1.18343197e-02 3.55029590e-02 1.77514795e-02 2.36686394e-02
      1.18343197e-02 5.91715984e-03 1.18343197e-02 2.36686394e-02 0.
      1.18343197e-02 2.95857992e-02 2.95857992e-02 3.55029590e-02
      4.73372787e-02 5.91715984e-03 2.36686394e-02 5.91715984e-02
      5.91715984e-03 0. 1.18343197e-02 2.95857992e-02 2.36686394e-02
      1.77514795e-02</_>
    <_>
      7.09219836e-03 1.06382975e-02 2.48226933e-02 2.12765951e-02
      3.54609918e-03 2.48226933e-02 2.83687934e-02 4.25531901e-02
      1.06382975e-02 1.06382975e-02 2.48226933e-02 8.51063803e-02
      4.25531901e-02 2.12765951e-02 1.41843967e-02 1.41843967e-02
      1.41843967e-02 1.06382975e-02 1.06382975e-02 2.12765951e-02 0.
      4.96453866e-02 1.41843967e-02 2.48226933e-02 3.90070900e-02
      3.19148935e-02 1.77304968e-02 2.12765951e-02 1.77304968e-02
      3.54609918e-03 1.41843967e-02 7.09219836e-03 1.41843967e-02
      1.06382975e-02 1.41843967e-02 1.77304968e-02 2.12765951e-02
      3.19148935e-02 4.25531901e-02 7.09219836e-03 1.77304968e-02
      1.77304968e-02 1.41843967e-02 7.09219836e-03 3.90070900e-02
      1.77304968e-02 1.06382975e-02 7.09219836e-03 3.54609918e-03
      2.12765951e-02</_>
    <_>
      1.97044332e-02 4.92610829e-03 3.94088663e-02 2.95566507e-02 0.
      1.97044332e-02 1.47783253e-02 4.92610829e-03 1.97044332e-02
      4.92610829e-03 1.47783253e-02 4.92610820e-02 7.88177326e-02
      2.46305410e-02 9.85221658e-03 1.97044332e-02 9.85221658e-03 0.
      9.85221658e-03 2.46305410e-02 4.92610829e-03 1.97044332e-02
      1.47783253e-02 0. 1.97044332e-02 4.43349741e-02 2.95566507e-02
      3.94088663e-02 9.85221658e-03 9.85221658e-03 1.47783253e-02
      9.85221658e-03 1.47783253e-02 2.95566507e-02 2.46305410e-02
      1.97044332e-02 9.85221658e-03 7.88177326e-02 3.94088663e-02
      4.92610829e-03 1.47783253e-02 0. 3.44827585e-02 1.47783253e-02
      2.95566507e-02 2.95566507e-02 4.92610829e-03 1.97044332e-02
      9.85221658e-03 4.92610829e-03</_>
    <_>
      0. 8.77192989e-03 5.26315793e-02 8.77192989e-03 0. 8.77192989e-03
      8.77192989e-03 0. 2.63157897e-02 0. 8.77192989e-03 2.63157897e-02
      5.26315793e-02 1.75438598e-02 6.14035092e-02 4.38596494e-02
      1.75438598e-02 8.77192989e-03 1.75438598e-02 8.77192989e-03
      1.75438598e-02 8.77192989e-03 0. 8.77192989e-03 8.77192989e-03
      8.77192989e-03 0. 8.77192989e-03 1.75438598e-02 2.63157897e-02
      8.77192989e-03 2.63157897e-02 1.75438598e-02 4.38596494e-02
      2.63157897e-02 1.75438598e-02 8.77192989e-03 7.01754391e-02
      4.38596494e-02 1.75438598e-02 8.77192989e-03 5.26315793e-02
      1.75438598e-02 8.77192989e-03 1.75438598e-02 7.01754391e-02 0.
      8.77192989e-03 0. 5.26315793e-02</_>
    <_>
      0. 9.90098994e-03 0. 5.94059378e-02 9.90098994e-03 3.96039598e-02
      1.98019799e-02 1.98019799e-02 1.98019799e-02 0. 9.90098994e-03
      3.96039598e-02 4.95049506e-02 2.97029689e-02 1.98019799e-02
      4.95049506e-02 0. 0. 0. 0. 9.90098994e-03 1.98019799e-02 0.
      9.90098994e-03 9.90098994e-03 1.98019799e-02 2.97029689e-02
      1.98019799e-02 9.90098994e-03 4.95049506e-02 9.90098994e-03 0.
      9.90098994e-03 4.95049506e-02 2.97029689e-02 4.95049506e-02
      1.98019799e-02 5.94059378e-02 3.96039598e-02 9.90098994e-03 0. 0.
      3.96039598e-02 0. 8.91089067e-02 1.98019799e-02 0. 0. 0.
      1.98019799e-02</_>
    <_>
      6.99300691e-03 2.79720277e-02 0. 2.79720277e-02 0. 4.19580415e-02
      1.39860138e-02 6.99300691e-03 2.79720277e-02 6.99300691e-03
      6.99300691e-03 6.99300691e-03 4.19580415e-02 0. 2.79720277e-02
      6.29370660e-02 0. 2.09790207e-02 2.09790207e-02 6.99300691e-03
      1.39860138e-02 3.49650346e-02 1.39860138e-02 6.99300691e-03
      1.39860138e-02 1.39860138e-02 1.39860138e-02 1.39860138e-02
      3.49650346e-02 2.09790207e-02 1.39860138e-02 1.39860138e-02
      6.99300691e-03 5.59440553e-02 5.59440553e-02 3.49650346e-02
      2.09790207e-02 2.79720277e-02 2.09790207e-02 1.39860138e-02
      6.99300691e-03 3.49650346e-02 6.99300691e-02 1.39860138e-02
      6.99300691e-03 3.49650346e-02 0. 6.99300691e-03 1.39860138e-02
      6.99300691e-03</_>
    <_>
      0. 0. 0. 4.09836024e-02 8.19672085e-03 2.45901626e-02
      8.19672085e-03 8.19672085e-03 0. 8.19672085e-03 4.09836024e-02
      4.09836024e-02 5.73770478e-02 5.73770478e-02 4.91803251e-02
      3.27868834e-02 1.63934417e-02 8.19672085e-03 0. 8.19672085e-03
      2.45901626e-02 1.63934417e-02 1.63934417e-02 0. 3.27868834e-02
      2.45901626e-02 0. 1.63934417e-02 1.63934417e-02 8.19672085e-03 0.
      2.45901626e-02 1.63934417e-02 1.63934417e-02 7.37704858e-02 0.
      4.91803251e-02 1.63934417e-02 1.63934417e-02 1.63934417e-02
      4.91803251e-02 1.63934417e-02 4.91803251e-02 3.27868834e-02
      2.45901626e-02 3.27868834e-02 0. 0. 0. 0.</_>
    <_>
      1.15740746e-02 1.38888890e-02 1.15740746e-02 2.31481493e-02
      1.85185187e-02 1.15740746e-02 2.77777780e-02 4.62962985e-02
      3.00925933e-02 2.08333340e-02 3.24074067e-02 1.38888890e-02
      4.39814813e-02 3.47222239e-02 1.15740746e-02 2.08333340e-02
      1.38888890e-02 6.94444450e-03 1.62037034e-02 6.94444450e-03
      2.31481493e-02 1.85185187e-02 3.24074067e-02 1.38888890e-02
      2.08333340e-02 1.15740746e-02 3.00925933e-02 3.24074067e-02
      2.54629627e-02 6.94444450e-03 1.38888890e-02 6.94444450e-03
      1.15740746e-02 2.31481493e-02 9.25925933e-03 2.31481493e-02
      5.55555560e-02 1.62037034e-02 1.62037034e-02 1.38888890e-02
      1.85185187e-02 3.00925933e-02 1.62037034e-02 4.62962966e-03
      2.77777780e-02 2.08333340e-02 1.62037034e-02 2.08333340e-02
      9.25925933e-03 1.38888890e-02</_>
    <_>
      5.74712642e-03 2.87356321e-03 2.29885057e-02 1.43678160e-02
      2.87356321e-02 1.14942528e-02 5.74712642e-03 5.17241359e-02
      3.44827585e-02 3.16091962e-02 3.44827585e-02 1.72413792e-02
      9.19540226e-02 2.87356321e-02 5.74712642e-03 1.43678160e-02
      1.14942528e-02 8.62068962e-03 2.29885057e-02 2.87356321e-03
      1.14942528e-02 1.43678160e-02 1.43678160e-02 1.72413792e-02
      2.87356321e-03 1.14942528e-02 5.74712642e-03 1.43678160e-02
      1.72413792e-02 8.62068962e-03 3.16091962e-02 2.01149434e-02
      2.58620679e-02 5.74712642e-03 8.62068962e-03 2.87356321e-03
      2.01149434e-02 5.74712642e-02 8.62068962e-03 1.14942528e-02
      5.74712642e-03 2.29885057e-02 8.62068962e-03 1.43678160e-02
      2.87356321e-02 1.14942528e-02 3.16091962e-02 1.43678160e-02
      1.72413792e-02 8.62068981e-02</_>
    <_>
      3.14960629e-02 1.57480314e-02 3.93700786e-02 1.57480314e-02
      1.57480314e-02 7.87401572e-03 2.36220472e-02 3.14960629e-02
      5.51181100e-02 1.57480314e-02 2.36220472e-02 3.14960629e-02
      6.29921257e-02 4.72440943e-02 7.87401572e-03 2.36220472e-02 0.
      7.87401572e-03 7.87401572e-03 1.57480314e-02 0. 7.87401572e-03
      1.57480314e-02 0. 3.93700786e-02 7.87401572e-03 7.87401572e-03
      1.57480314e-02 3.14960629e-02 3.14960629e-02 7.87401572e-03
      7.87401572e-03 1.57480314e-02 1.57480314e-02 3.14960629e-02
      3.14960629e-02 7.87401572e-03 6.29921257e-02 3.93700786e-02 0.
      1.57480314e-02 2.36220472e-02 3.14960629e-02 2.36220472e-02 0.
      1.57480314e-02 0. 1.57480314e-02 0. 1.57480314e-02</_>
    <_>
      6.55737706e-03 1.31147541e-02 9.83606558e-03 3.60655747e-02
      1.63934417e-02 2.29508206e-02 4.59016412e-02 1.31147541e-02
      3.27868853e-03 2.95081958e-02 9.83606558e-03 1.63934417e-02
      5.90163916e-02 3.27868853e-03 1.63934417e-02 2.29508206e-02
      9.83606558e-03 3.93442623e-02 3.60655747e-02 6.55737706e-03
      1.31147541e-02 3.27868834e-02 2.95081958e-02 1.63934417e-02
      1.31147541e-02 9.83606558e-03 1.96721312e-02 4.26229499e-02
      1.31147541e-02 3.27868853e-03 6.55737706e-03 1.96721312e-02 0.
      2.29508206e-02 1.31147541e-02 5.24590164e-02 5.90163916e-02
      2.62295082e-02 9.83606558e-03 2.95081958e-02 3.27868853e-03
      3.93442623e-02 2.95081958e-02 0. 3.93442623e-02 1.96721312e-02 0.
      1.63934417e-02 3.27868853e-03 0.</_>
    <_>
      7.24637695e-03 3.62318847e-03 3.62318847e-03 1.81159414e-02
      3.62318847e-03 2.53623202e-02 2.53623202e-02 1.81159414e-02
      3.62318829e-02 1.44927539e-02 0. 0. 4.34782617e-02 1.81159414e-02
      2.89855078e-02 6.88405782e-02 2.17391308e-02 3.62318847e-03
      1.81159414e-02 0. 1.08695654e-02 3.62318847e-03 7.24637695e-03
      2.17391308e-02 2.53623202e-02 2.17391308e-02 7.24637695e-03
      2.17391308e-02 2.17391308e-02 1.44927539e-02 1.08695654e-02
      1.44927539e-02 1.44927539e-02 2.53623202e-02 2.17391308e-02
      1.81159414e-02 6.52173907e-02 7.24637695e-03 1.44927539e-02
      7.24637695e-03 3.62318829e-02 5.07246405e-02 6.15942031e-02
      2.53623202e-02 4.34782617e-02 3.98550741e-02 0. 1.08695654e-02
      7.24637695e-03 1.08695654e-02</_>
    <_>
      2.11538468e-02 5.76923089e-03 5.76923089e-03 1.92307699e-02
      9.61538497e-03 7.69230770e-03 2.11538468e-02 1.73076931e-02
      3.65384631e-02 2.50000004e-02 7.69230770e-03 1.15384618e-02
      3.65384631e-02 2.88461540e-02 2.11538468e-02 4.42307703e-02
      1.92307699e-02 1.92307699e-02 9.61538497e-03 1.92307692e-03
      1.34615386e-02 3.07692308e-02 1.15384618e-02 1.15384618e-02
      2.30769236e-02 7.69230770e-03 1.15384618e-02 9.61538497e-03
      3.07692308e-02 2.30769236e-02 1.73076931e-02 1.53846154e-02
      1.34615386e-02 3.07692308e-02 3.26923095e-02 3.65384631e-02
      1.73076931e-02 9.61538497e-03 1.34615386e-02 1.73076931e-02
      1.73076931e-02 5.19230776e-02 3.65384631e-02 2.50000004e-02
      6.73076957e-02 2.69230772e-02 3.84615385e-03 7.69230770e-03
      5.76923089e-03 1.15384618e-02</_>
    <_>
      2.45614033e-02 3.50877200e-03 0. 2.10526325e-02 7.01754401e-03
      2.80701760e-02 3.50877196e-02 1.05263162e-02 1.75438598e-02 0.
      3.50877200e-03 3.50877200e-03 6.31578937e-02 1.75438598e-02
      1.05263162e-02 3.85964923e-02 1.05263162e-02 3.50877200e-03
      2.10526325e-02 3.50877200e-03 1.40350880e-02 1.75438598e-02
      1.40350880e-02 7.01754401e-03 2.45614033e-02 7.01754401e-03 0.
      1.75438598e-02 3.85964923e-02 3.50877196e-02 1.75438598e-02
      1.40350880e-02 1.05263162e-02 4.56140377e-02 1.05263162e-02
      4.21052650e-02 2.80701760e-02 1.75438598e-02 0. 1.75438598e-02
      3.15789469e-02 3.85964923e-02 2.80701760e-02 3.50877200e-03
      8.77192989e-02 8.42105299e-02 3.50877200e-03 1.05263162e-02
      1.05263162e-02 0.</_>
    <_>
      5.39979264e-02 5.19210845e-03 5.19210845e-03 2.18068548e-02
      2.07684338e-02 5.19210845e-03 4.25752886e-02 5.19210845e-03
      1.34994816e-02 1.76531672e-02 9.34579503e-03 1.45379025e-02
      3.11526493e-03 2.38836985e-02 2.69989632e-02 3.21910717e-02
      7.16510937e-02 1.55763244e-02 1.86915901e-02 5.19210845e-03
      1.45379025e-02 3.94600220e-02 3.11526493e-03 1.45379025e-02
      3.63447592e-02 1.76531672e-02 3.11526493e-03 2.69989632e-02
      3.11526489e-02 2.38836985e-02 6.23052986e-03 2.07684338e-02
      9.34579503e-03 1.86915901e-02 3.94600220e-02 2.18068548e-02
      2.69989632e-02 3.11526493e-03 1.55763244e-02 6.23052986e-03
      2.38836985e-02 1.66147463e-02 3.53063345e-02 2.49221195e-02
      5.19210808e-02 1.86915901e-02 5.19210845e-03 1.24610597e-02
      1.66147463e-02 3.11526493e-03</_>
    <_>
      6.73400657e-03 2.35690232e-02 2.35690232e-02 2.69360263e-02
      3.03030293e-02 6.73400657e-03 1.34680131e-02 1.01010101e-02
      1.34680131e-02 5.38720526e-02 3.03030293e-02 2.69360263e-02
      5.72390556e-02 1.01010101e-02 3.36700329e-03 6.73400657e-03
      1.01010101e-02 3.03030293e-02 2.35690232e-02 1.01010101e-02
      1.34680131e-02 1.34680131e-02 6.73400657e-03 1.68350171e-02
      2.02020202e-02 2.35690232e-02 2.69360263e-02 3.70370373e-02
      1.68350171e-02 6.73400657e-03 1.01010101e-02 4.04040404e-02
      1.01010101e-02 3.36700329e-03 6.73400657e-03 3.03030293e-02
      1.34680131e-02 5.38720526e-02 4.04040404e-02 3.70370373e-02
      6.73400657e-03 1.68350171e-02 1.68350171e-02 1.34680131e-02
      3.36700343e-02 0. 1.34680131e-02 2.35690232e-02 1.34680131e-02
      1.68350171e-02</_>
    <_>
      2.71966513e-02 6.27615023e-03 6.27615023e-03 2.51046009e-02
      2.92887017e-02 1.46443509e-02 1.88284516e-02 1.46443509e-02
      4.18410031e-03 5.64853549e-02 2.09205020e-02 2.92887017e-02
      2.09205020e-02 2.51046009e-02 1.25523005e-02 2.30125524e-02
      1.88284516e-02 5.23012541e-02 3.34728025e-02 8.36820062e-03
      8.36820062e-03 1.67364012e-02 4.18410031e-03 1.46443509e-02
      1.04602510e-02 3.34728025e-02 2.09205020e-02 5.02092019e-02
      6.27615023e-03 1.46443509e-02 8.36820062e-03 2.09205020e-02
      8.36820062e-03 1.25523005e-02 1.88284516e-02 3.13807540e-02
      3.34728025e-02 6.27615023e-03 2.09205020e-02 2.30125524e-02
      2.51046009e-02 1.67364012e-02 2.92887017e-02 1.25523005e-02
      2.92887017e-02 1.25523005e-02 1.67364012e-02 2.30125524e-02
      1.46443509e-02 8.36820062e-03</_>
    <_>
      7.10479617e-02 0. 3.90763767e-02 5.32859704e-03 3.55239795e-03
      3.55239795e-03 7.10479589e-03 8.88099521e-03 5.32859704e-03
      3.55239795e-03 1.06571941e-02 1.84724689e-01 1.59857906e-02
      3.55239795e-03 1.77619897e-03 3.55239795e-03 2.29129672e-01
      5.32859704e-03 5.32859704e-03 2.13143881e-02 1.06571941e-02
      5.32859704e-03 1.77619897e-03 2.30905861e-02 5.32859704e-03
      1.06571941e-02 1.24333929e-02 3.55239795e-03 5.32859704e-03
      5.32859704e-03 1.06571941e-02 1.24333929e-02 1.42095918e-02
      1.77619897e-03 8.88099521e-03 1.06571941e-02 3.55239795e-03
      3.01953834e-02 5.32859704e-03 5.15097715e-02 7.10479589e-03
      7.10479589e-03 1.77619897e-03 1.95381884e-02 3.55239795e-03
      3.55239795e-03 1.77619897e-03 7.10479617e-02 1.95381884e-02
      3.55239795e-03</_>
    <_>
      1.02564106e-02 1.02564106e-02 3.84615399e-02 7.69230817e-03
      1.79487187e-02 1.28205130e-02 0. 3.84615399e-02 7.69230817e-03
      7.69230817e-03 1.53846163e-02 4.87179495e-02 5.64102568e-02
      5.12820529e-03 1.02564106e-02 2.56410264e-03 8.71794894e-02
      1.53846163e-02 2.56410264e-03 1.53846163e-02 5.12820520e-02
      1.28205130e-02 1.79487187e-02 3.84615399e-02 7.69230817e-03
      2.30769236e-02 4.35897447e-02 2.56410264e-03 1.28205130e-02
      1.02564106e-02 2.05128212e-02 2.30769236e-02 1.02564106e-02
      5.12820529e-03 7.69230817e-03 5.12820529e-03 1.79487187e-02
      5.89743592e-02 1.79487187e-02 1.28205130e-02 5.12820529e-03
      2.05128212e-02 2.56410264e-03 3.33333351e-02 1.28205130e-02 0.
      1.53846163e-02 3.58974375e-02 3.33333351e-02 3.07692327e-02</_>
    <_>
      5.71428565e-03 1.14285713e-02 1.99999996e-02 1.99999996e-02
      1.99999996e-02 8.57142825e-03 8.57142825e-03 4.28571440e-02
      3.71428579e-02 3.71428579e-02 1.99999996e-02 2.28571426e-02
      7.42857158e-02 2.57142857e-02 8.57142825e-03 1.71428565e-02
      2.28571426e-02 2.57142857e-02 1.99999996e-02 1.99999996e-02
      1.71428565e-02 2.85714283e-03 2.57142857e-02 8.57142825e-03
      1.14285713e-02 1.71428565e-02 2.28571426e-02 2.57142857e-02
      3.42857130e-02 1.71428565e-02 1.99999996e-02 1.99999996e-02
      1.14285713e-02 1.99999996e-02 1.14285713e-02 2.57142857e-02
      1.42857144e-02 2.85714287e-02 2.28571426e-02 8.57142825e-03
      1.42857144e-02 1.99999996e-02 1.99999996e-02 1.42857144e-02
      1.42857144e-02 5.71428565e-03 3.71428579e-02 8.57142825e-03
      1.42857144e-02 1.71428565e-02</_>
    <_>
      1.50753763e-02 2.51256283e-02 2.26130653e-02 1.25628142e-02
      2.51256283e-02 2.01005023e-02 1.50753763e-02 2.76381914e-02
      2.76381914e-02 3.26633155e-02 2.01005023e-02 4.27135676e-02
      4.02010046e-02 1.50753763e-02 1.25628142e-02 1.75879393e-02
      3.26633155e-02 1.50753763e-02 2.01005023e-02 7.53768813e-03
      1.25628142e-02 2.01005023e-02 5.02512557e-03 2.26130653e-02
      1.50753763e-02 2.26130653e-02 3.51758786e-02 1.00502511e-02
      1.25628142e-02 2.01005023e-02 1.75879393e-02 1.50753763e-02
      1.00502511e-02 1.00502511e-02 1.00502511e-02 1.50753763e-02
      2.51256283e-02 1.75879393e-02 1.50753763e-02 2.51256283e-02
      2.51256283e-02 3.26633155e-02 1.75879393e-02 2.51256283e-02
      2.51256283e-02 1.25628142e-02 1.50753763e-02 2.51256283e-02
      1.25628142e-02 2.51256283e-02</_>
    <_>
      9.99999978e-03 7.49999983e-03 4.99999989e-03 1.99999996e-02
      1.24999993e-02 1.75000001e-02 1.49999997e-02 1.99999996e-02
      4.25000004e-02 1.99999996e-02 2.74999999e-02 3.74999978e-02
      6.49999976e-02 1.49999997e-02 1.24999993e-02 1.75000001e-02
      1.75000001e-02 2.74999999e-02 2.49999985e-02 4.99999989e-03
      2.24999990e-02 1.75000001e-02 0. 1.75000001e-02 2.24999990e-02
      1.99999996e-02 4.25000004e-02 3.24999988e-02 1.99999996e-02
      1.24999993e-02 1.99999996e-02 1.99999996e-02 9.99999978e-03
      2.49999985e-02 1.49999997e-02 7.49999983e-03 2.24999990e-02
      1.24999993e-02 3.24999988e-02 1.24999993e-02 3.74999978e-02
      2.24999990e-02 1.99999996e-02 2.49999985e-02 2.49999985e-02
      1.99999996e-02 9.99999978e-03 1.99999996e-02 9.99999978e-03
      4.99999989e-03</_>
    <_>
      2.92207785e-02 6.49350649e-03 4.22077924e-02 2.92207785e-02
      3.24675329e-02 1.62337665e-02 9.74025950e-03 2.27272734e-02
      2.27272734e-02 2.59740259e-02 1.94805190e-02 2.27272734e-02
      3.24675329e-02 1.94805190e-02 1.94805190e-02 1.29870130e-02
      1.29870130e-02 1.94805190e-02 1.94805190e-02 1.62337665e-02
      2.27272734e-02 2.27272734e-02 2.27272734e-02 3.24675329e-02
      1.62337665e-02 1.29870130e-02 1.29870130e-02 1.29870130e-02
      1.29870130e-02 6.49350649e-03 1.94805190e-02 3.24675329e-02
      1.94805190e-02 1.62337665e-02 1.62337665e-02 2.59740259e-02
      2.27272734e-02 2.59740259e-02 2.27272734e-02 6.49350649e-03
      1.94805190e-02 0. 2.59740259e-02 1.29870130e-02 3.24675324e-03
      1.29870130e-02 3.57142873e-02 9.74025950e-03 3.24675329e-02
      3.24675329e-02</_>
    <_>
      8.54700804e-03 1.42450146e-02 2.56410260e-02 1.70940161e-02
      1.70940161e-02 1.70940161e-02 2.84900283e-03 6.26780614e-02
      4.84330468e-02 1.42450146e-02 1.42450146e-02 6.55270666e-02
      4.55840454e-02 4.84330468e-02 2.84900283e-03 2.27920227e-02
      2.84900283e-03 1.70940161e-02 5.69800567e-03 2.27920227e-02
      2.27920227e-02 5.69800567e-03 5.69800567e-03 1.42450146e-02 0.
      1.99430194e-02 2.56410260e-02 1.42450146e-02 1.42450146e-02
      5.69800567e-03 2.84900293e-02 1.70940161e-02 8.54700804e-03
      8.54700804e-03 8.54700804e-03 8.54700804e-03 3.41880322e-02
      1.70940161e-02 3.13390307e-02 2.27920227e-02 2.27920227e-02
      4.84330468e-02 8.54700804e-03 2.84900293e-02 5.69800567e-03
      1.99430194e-02 1.99430194e-02 8.54700804e-03 3.41880322e-02
      1.42450146e-02</_>
    <_>
      1.22591946e-02 5.25394036e-03 4.20315228e-02 1.57618206e-02
      2.45183893e-02 2.10157614e-02 1.57618206e-02 2.10157614e-02
      1.92644484e-02 3.32749560e-02 1.05078807e-02 2.10157614e-02
      6.65499121e-02 1.75131336e-02 1.40105076e-02 1.75131336e-02
      7.00525381e-03 1.57618206e-02 1.75131336e-02 1.05078807e-02
      2.45183893e-02 1.40105076e-02 1.40105076e-02 1.57618206e-02
      1.05078807e-02 1.57618206e-02 1.05078807e-02 1.57618206e-02
      1.57618206e-02 1.75131336e-02 2.80210152e-02 2.27670744e-02
      1.22591946e-02 8.75656679e-03 1.92644484e-02 2.27670744e-02
      3.15236412e-02 7.18038529e-02 1.75131336e-02 7.00525381e-03
      2.10157614e-02 2.45183893e-02 2.27670744e-02 1.40105076e-02
      1.05078807e-02 2.45183893e-02 2.27670744e-02 5.25394036e-03
      2.27670744e-02 2.80210152e-02</_>
    <_>
      2.18749996e-02 1.56250000e-02 1.25000002e-02 3.75000015e-02
      1.25000002e-02 9.37500037e-03 1.56250000e-02 3.75000015e-02
      2.50000004e-02 1.25000002e-02 1.87500007e-02 9.37500037e-03
      6.56250045e-02 3.75000015e-02 2.50000004e-02 4.37499993e-02
      3.12500000e-02 1.25000002e-02 2.81250011e-02 3.12500005e-03
      3.12500005e-03 9.37500037e-03 1.25000002e-02 1.87500007e-02
      1.87500007e-02 3.12500005e-03 9.37500037e-03 2.81250011e-02
      1.25000002e-02 9.37500037e-03 9.37500037e-03 6.25000009e-03
      6.25000009e-03 2.18749996e-02 3.43750007e-02 2.81250011e-02
      4.06250022e-02 1.25000002e-02 1.56250000e-02 1.25000002e-02
      1.25000002e-02 3.12500000e-02 5.62500022e-02 6.25000009e-03
      5.93749993e-02 2.50000004e-02 3.12500005e-03 1.87500007e-02 0. 0.</_>
    <_>
      1.78571437e-02 1.07142860e-02 0. 2.50000004e-02 3.57142859e-03
      3.21428590e-02 3.92857157e-02 2.14285720e-02 1.78571437e-02
      1.42857144e-02 1.07142860e-02 7.14285718e-03 6.42857179e-02
      1.78571437e-02 1.42857144e-02 1.78571437e-02 7.14285718e-03
      7.14285718e-03 3.21428590e-02 0. 7.14285718e-03 5.35714291e-02
      1.07142860e-02 4.64285724e-02 1.78571437e-02 1.78571437e-02
      2.50000004e-02 7.14285718e-03 1.42857144e-02 2.14285720e-02
      2.50000004e-02 1.42857144e-02 1.42857144e-02 1.78571437e-02
      3.57142859e-03 4.28571440e-02 3.21428590e-02 3.57142859e-03
      2.85714287e-02 1.42857144e-02 1.42857144e-02 1.42857144e-02
      2.85714287e-02 0. 5.71428575e-02 3.92857157e-02 1.78571437e-02
      1.78571437e-02 1.07142860e-02 2.14285720e-02</_>
    <_>
      2.17785835e-02 1.81488204e-03 1.08892918e-02 1.99637022e-02
      3.62976417e-02 1.08892918e-02 2.17785835e-02 1.99637022e-02
      1.45190563e-02 3.26678753e-02 2.35934667e-02 1.63339376e-02
      2.17785835e-02 1.45190563e-02 1.27041740e-02 2.90381126e-02
      3.62976417e-02 2.72232313e-02 1.99637022e-02 9.07441042e-03
      1.27041740e-02 2.90381126e-02 1.45190563e-02 7.25952815e-03
      1.99637022e-02 1.63339376e-02 3.44827585e-02 1.63339376e-02
      1.45190563e-02 1.45190563e-02 2.72232313e-02 4.17422876e-02
      1.63339376e-02 7.25952815e-03 9.07441042e-03 3.26678753e-02
      3.44827585e-02 2.35934667e-02 3.08529940e-02 1.45190563e-02
      2.54083481e-02 3.62976417e-02 2.90381126e-02 3.62976408e-03
      3.44827585e-02 1.27041740e-02 1.45190563e-02 5.44464588e-03
