<?xml version="1.0"?>
<opencv_storage>
<opencv_ml_svm>
  <format>3</format>
  <svmType>C_SVC</svmType>
  <kernel>
    <type>RBF</type>
    <gamma>1.0000000000000001e-05</gamma></kernel>
  <C>5.0000000000000000e-01</C>
  <term_criteria><epsilon>1.1920928955078125e-07</epsilon>
    <iterations>1000</iterations></term_criteria>
  <var_count>2</var_count>
  <class_count>2</class_count>
  <class_labels type_id="opencv-matrix">
    <rows>2</rows>
    <cols>1</cols>
    <dt>i</dt>
    <data>
      0 1</data></class_labels>
  <sv_total>34</sv_total>
  <support_vectors>
    <_>
      114. 153.</_>
    <_>
      76. 120.</_>
    <_>
      138. 50.</_>
    <_>
      81. 87.</_>
    <_>
      16. 148.</_>
    <_>
      131. 83.</_>
    <_>
      150. 123.</_>
    <_>
      150. 33.</_>
    <_>
      96. 73.</_>
    <_>
      143. 57.</_>
    <_>
      155. 64.</_>
    <_>
      100. 152.</_>
    <_>
      149. 127.</_>
    <_>
      108. 104.</_>
    <_>
      106. 55.</_>
    <_>
      155. 76.</_>
    <_>
      111. 83.</_>
    <_>
      100. 170.</_>
    <_>
      102. 183.</_>
    <_>
      128. 126.</_>
    <_>
      184. 143.</_>
    <_>
      237. 118.</_>
    <_>
      102. 98.</_>
    <_>
      136. 156.</_>
    <_>
      232. 141.</_>
    <_>
      141. 186.</_>
    <_>
      188. 195.</_>
    <_>
      251. 133.</_>
    <_>
      162. 144.</_>
    <_>
      138. 248.</_>
    <_>
      218. 134.</_>
    <_>
      215. 123.</_>
    <_>
      190. 191.</_>
    <_>
      196. 159.</_></support_vectors>
  <decision_functions>
    <_>
      <sv_count>34</sv_count>
      <rho>3.9869681000709548e-02</rho>
      <alpha>
        5.0000000000000000e-01 5.0000000000000000e-01
        5.0000000000000000e-01 5.0000000000000000e-01
        5.0000000000000000e-01 5.0000000000000000e-01
        5.0000000000000000e-01 5.0000000000000000e-01
        5.0000000000000000e-01 5.0000000000000000e-01
        5.0000000000000000e-01 5.0000000000000000e-01
        5.0000000000000000e-01 5.0000000000000000e-01
        5.0000000000000000e-01 5.0000000000000000e-01
        5.0000000000000000e-01 -5.0000000000000000e-01
        -5.0000000000000000e-01 -5.0000000000000000e-01
        -5.0000000000000000e-01 -5.0000000000000000e-01
        -5.0000000000000000e-01 -5.0000000000000000e-01
        -5.0000000000000000e-01 -5.0000000000000000e-01
        -5.0000000000000000e-01 -5.0000000000000000e-01
        -5.0000000000000000e-01 -5.0000000000000000e-01
        -5.0000000000000000e-01 -5.0000000000000000e-01
        -5.0000000000000000e-01 -5.0000000000000000e-01</alpha>
      <index>
        0 1 2 3 4 5 6 7 8 9 10 11 12 13 14 15 16 17 18 19 20 21 22 23 24
        25 26 27 28 29 30 31 32 33</index></_></decision_functions></opencv_ml_svm>
</opencv_storage>
