<?xml version="1.0"?>
<opencv_storage>
<opencv_ml_svm>
  <format>3</format>
  <svmType>C_SVC</svmType>
  <kernel>
    <type>RBF</type>
    <gamma>1.5000000000000001e-04</gamma></kernel>
  <C>2.5000000000000000e+00</C>
  <term_criteria><epsilon>1.1920928955078125e-07</epsilon>
    <iterations>1000</iterations></term_criteria>
  <var_count>2</var_count>
  <class_count>2</class_count>
  <class_labels type_id="opencv-matrix">
    <rows>2</rows>
    <cols>1</cols>
    <dt>i</dt>
    <data>
      0 1</data></class_labels>
  <sv_total>19</sv_total>
  <support_vectors>
    <_>
      3. 47.</_>
    <_>
      129. 146.</_>
    <_>
      18. 138.</_>
    <_>
      153. 104.</_>
    <_>
      150. 40.</_>
    <_>
      112. 155.</_>
    <_>
      146. 127.</_>
    <_>
      111. 130.</_>
    <_>
      148. 129.</_>
    <_>
      75. 5.</_>
    <_>
      191. 104.</_>
    <_>
      130. 115.</_>
    <_>
      252. 186.</_>
    <_>
      218. 232.</_>
    <_>
      159. 111.</_>
    <_>
      186. 148.</_>
    <_>
      100. 167.</_>
    <_>
      138. 176.</_>
    <_>
      108. 153.</_></support_vectors>
  <decision_functions>
    <_>
      <sv_count>19</sv_count>
      <rho>-4.5359255736352966e-02</rho>
      <alpha>
        4.6014102498478099e-01 2.5000000000000000e+00
        1.1530776874792177e+00 2.5000000000000000e+00
        8.4995231167136609e-01 2.5000000000000000e+00
        2.5000000000000000e+00 1.2294996590093321e+00
        2.5000000000000000e+00 3.6641806968820695e-01
        -2.5000000000000000e+00 -2.5000000000000000e+00
        -1.8232420540634710e-02 -3.7644954954245491e-01
        -2.5000000000000000e+00 -1.1644067827498146e+00
        -2.5000000000000000e+00 -2.5000000000000000e+00
        -2.5000000000000000e+00</alpha>
      <index>
        0 1 2 3 4 5 6 7 8 9 10 11 12 13 14 15 16 17 18</index></_></decision_functions></opencv_ml_svm>
</opencv_storage>
